{"learner":{"attributes":{},"feature_names":["H_bin0","H_bin1","H_bin2","H_bin3","H_bin4","H_bin5","H_bin6","H_bin7","S_bin0","S_bin1","S_bin2","S_bin3","S_bin4","S_bin5","S_bin6","S_bin7","V_bin0","V_bin1","V_bin2","V_bin3","V_bin4","V_bin5","V_bin6","V_bin7","Contrast","Dissimilarity","Homogeneity","Energy","Correlation","HOG_Mean","HOG_Std","Edge_Mean","Edge_Std","Edge_Density","Lap_Var","Lap_Mean","Bright_Ratio","Gray_Std"],"feature_types":["float","float","float","float","float","float","float","float","float","float","float","float","float","float","float","float","float","float","float","float","float","float","float","float","float","float","float","float","float","float","float","float","float","float","float","float","float","float"],"gradient_booster":{"model":{"cats":{"enc":[],"feature_segments":[],"sorted_idx":[]},"gbtree_model_param":{"num_parallel_tree":"1","num_trees":"900"},"iteration_indptr":[0,6,12,18,24,30,36,42,48,54,60,66,72,78,84,90,96,102,108,114,120,126,132,138,144,150,156,162,168,174,180,186,192,198,204,210,216,222,228,234,240,246,252,258,264,270,276,282,288,294,300,306,312,318,324,330,336,342,348,354,360,366,372,378,384,390,396,402,408,414,420,426,432,438,444,450,456,462,468,474,480,486,492,498,504,510,516,522,528,534,540,546,552,558,564,570,576,582,588,594,600,606,612,618,624,630,636,642,648,654,660,666,672,678,684,690,696,702,708,714,720,726,732,738,744,750,756,762,768,774,780,786,792,798,804,810,816,822,828,834,840,846,852,858,864,870,876,882,888,894,900],"tree_info":[0,1,2,3,4,5,0,1,2,3,4,5,0,1,2,3,4,5,0,1,2,3,4,5,0,1,2,3,4,5,0,1,2,3,4,5,0,1,2,3,4,5,0,1,2,3,4,5,0,1,2,3,4,5,0,1,2,3,4,5,0,1,2,3,4,5,0,1,2,3,4,5,0,1,2,3,4,5,0,1,2,3,4,5,0,1,2,3,4,5,0,1,2,3,4,5,0,1,2,3,4,5,0,1,2,3,4,5,0,1,2,3,4,5,0,1,2,3,4,5,0,1,2,3,4,5,0,1,2,3,4,5,0,1,2,3,4,5,0,1,2,3,4,5,0,1,2,3,4,5,0,1,2,3,4,5,0,1,2,3,4,5,0,1,2,3,4,5,0,1,2,3,4,5,0,1,2,3,4,5,0,1,2,3,4,5,0,1,2,3,4,5,0,1,2,3,4,5,0,1,2,3,4,5,0,1,2,3,4,5,0,1,2,3,4,5,0,1,2,3,4,5,0,1,2,3,4,5,0,1,2,3,4,5,0,1,2,3,4,5,0,1,2,3,4,5,0,1,2,3,4,5,0,1,2,3,4,5,0,1,2,3,4,5,0,1,2,3,4,5,0,1,2,3,4,5,0,1,2,3,4,5,0,1,2,3,4,5,0,1,2,3,4,5,0,1,2,3,4,5,0,1,2,3,4,5,0,1,2,3,4,5,0,1,2,3,4,5,0,1,2,3,4,5,0,1,2,3,4,5,0,1,2,3,4,5,0,1,2,3,4,5,0,1,2,3,4,5,0,1,2,3,4,5,0,1,2,3,4,5,0,1,2,3,4,5,0,1,2,3,4,5,0,1,2,3,4,5,0,1,2,3,4,5,0,1,2,3,4,5,0,1,2,3,4,5,0,1,2,3,4,5,0,1,2,3,4,5,0,1,2,3,4,5,0,1,2,3,4,5,0,1,2,3,4,5,0,1,2,3,4,5,0,1,2,3,4,5,0,1,2,3,4,5,0,1,2,3,4,5,0,1,2,3,4,5,0,1,2,3,4,5,0,1,2,3,4,5,0,1,2,3,4,5,0,1,2,3,4,5,0,1,2,3,4,5,0,1,2,3,4,5,0,1,2,3,4,5,0,1,2,3,4,5,0,1,2,3,4,5,0,1,2,3,4,5,0,1,2,3,4,5,0,1,2,3,4,5,0,1,2,3,4,5,0,1,2,3,4,5,0,1,2,3,4,5,0,1,2,3,4,5,0,1,2,3,4,5,0,1,2,3,4,5,0,1,2,3,4,5,0,1,2,3,4,5,0,1,2,3,4,5,0,1,2,3,4,5,0,1,2,3,4,5,0,1,2,3,4,5,0,1,2,3,4,5,0,1,2,3,4,5,0,1,2,3,4,5,0,1,2,3,4,5,0,1,2,3,4,5,0,1,2,3,4,5,0,1,2,3,4,5,0,1,2,3,4,5,0,1,2,3,4,5,0,1,2,3,4,5,0,1,2,3,4,5,0,1,2,3,4,5,0,1,2,3,4,5,0,1,2,3,4,5,0,1,2,3,4,5,0,1,2,3,4,5,0,1,2,3,4,5,0,1,2,3,4,5,0,1,2,3,4,5,0,1,2,3,4,5,0,1,2,3,4,5,0,1,2,3,4,5,0,1,2,3,4,5,0,1,2,3,4,5,0,1,2,3,4,5,0,1,2,3,4,5,0,1,2,3,4,5,0,1,2,3,4,5,0,1,2,3,4,5,0,1,2,3,4,5,0,1,2,3,4,5,0,1,2,3,4,5,0,1,2,3,4,5,0,1,2,3,4,5,0,1,2,3,4,5,0,1,2,3,4,5,0,1,2,3,4,5,0,1,2,3,4,5,0,1,2,3,4,5,0,1,2,3,4,5,0,1,2,3,4,5,0,1,2,3,4,5,0,1,2,3,4,5,0,1,2,3,4,5,0,1,2,3,4,5,0,1,2,3,4,5,0,1,2,3,4,5,0,1,2,3,4,5,0,1,2,3,4,5,0,1,2,3,4,5],"trees":[{"base_weights":[4.1832487E-4,-3.1556976E-1,2.8815787E0,7.8717196E-1,-4.4594827E-1,1.6473987E0,2.9635072E-1,2.3161092E0,6.770096E-2,-4.5290858E-1,1.9811319E-1,2.0869563E0,-5.660379E-3,-1.8584073E-1,2.7442272E0,1.1883116E0,-2.3936172E-1,1.7586206E-1,-4.5985654E-1,6.315789E-2,2.237288E0,6.315789E-2,-4.8387095E-2,6.2264144E-2,2.8636363E-1,-2.7272728E-1,2.2131145E0,1.0898659E-1,-5.2487963E-1,-4.8295003E-1,-3.6144603E-2,6.315789E-2,2.4489795E-1,6.315789E-2,-5.121951E-2,2.4478526E-1,1.5789472E-2,5.454545E-2,-4.7639485E-2,1.5789472E-2,-5.5223882E-2,-3.568795E-2,-5.3988274E-2,-5.7024796E-2,3.0633798E-2],"categories":[],"categories_nodes":[],"categories_segments":[],"categories_sizes":[],"default_left":[0,0,0,0,0,0,0,0,0,0,0,0,0,0,0,0,0,0,0,0,0,0,0,0,0,0,0,0,0,0,0,0,0,0,0,0,0,0,0,0,0,0,0,0,0],"id":0,"left_children":[1,3,5,7,9,11,-1,13,15,17,-1,19,-1,21,23,25,27,-1,29,-1,31,-1,-1,-1,-1,33,35,37,39,41,43,-1,-1,-1,-1,-1,-1,-1,-1,-1,-1,-1,-1,-1,-1],"loss_changes":[1.0890039E3,1.5533124E2,7.0718994E0,1.2561284E2,1.7192657E1,7.316921E0,0E0,3.966574E1,2.7391687E1,1.56006775E1,0E0,2.6436234E-1,0E0,1.8349684E0,6.1407623E0,2.6223652E1,6.2900105E0,0E0,9.380478E0,0E0,6.816063E-1,0E0,0E0,0E0,0E0,2.043879E0,4.51828E0,7.6835527E0,7.3373795E-1,6.344101E0,9.452854E0,0E0,0E0,0E0,0E0,0E0,0E0,0E0,0E0,0E0,0E0,0E0,0E0,0E0,0E0],"parents":[2147483647,0,0,1,1,2,2,3,3,4,4,5,5,7,7,8,8,9,9,11,11,13,13,14,14,15,15,16,16,18,18,20,20,25,25,26,26,27,27,28,28,29,29,30,30],"right_children":[2,4,6,8,10,12,-1,14,16,18,-1,20,-1,22,24,26,28,-1,30,-1,32,-1,-1,-1,-1,34,36,38,40,42,44,-1,-1,-1,-1,-1,-1,-1,-1,-1,-1,-1,-1,-1,-1],"split_conditions":[3.5380315E-2,1.6474593E-1,4.0576283E-2,1.5816715E-1,9.854512E-1,6.848802E-3,2.9635072E-1,2.906944E-1,1.6362697E-1,5.431177E-3,1.9811319E-1,2.4625647E-4,-5.660379E-3,3.1460049E-3,1.2439394E-3,2.4621445E-4,1.0702739E-1,1.7586206E-1,9.79385E-1,6.315789E-2,3.3100283E-1,6.315789E-2,-4.8387095E-2,6.2264144E-2,2.8636363E-1,5.938063E-2,7.00273E-2,7.212994E-2,4.309567E-4,6.015263E-3,3.2166237E-1,6.315789E-2,2.4489795E-1,6.315789E-2,-5.121951E-2,2.4478526E-1,1.5789472E-2,5.454545E-2,-4.7639485E-2,1.5789472E-2,-5.5223882E-2,-3.568795E-2,-5.3988274E-2,-5.7024796E-2,3.0633798E-2],"split_indices":[27,25,27,37,0,13,0,22,8,19,0,0,0,23,8,36,19,0,1,0,21,0,0,0,0,19,24,3,1,12,22,0,0,0,0,0,0,0,0,0,0,0,0,0,0],"split_type":[0,0,0,0,0,0,0,0,0,0,0,0,0,0,0,0,0,0,0,0,0,0,0,0,0,0,0,0,0,0,0,0,0,0,0,0,0,0,0,0,0,0,0,0,0],"sum_hessian":[1.1941667E3,1.0769445E3,1.1722223E2,1.13333336E2,9.6361115E2,8.611112E0,1.08611115E2,3.5555557E1,7.777778E1,9.616667E2,1.9444445E0,6.666667E0,1.9444445E0,5.277778E0,3.0277779E1,1.6111113E1,6.1666668E1,2.2222223E0,9.594445E2,1.1111112E0,5.555556E0,1.1111112E0,4.166667E0,1.9444445E0,2.8333334E1,6.9444447E0,9.166667E0,2.8055557E1,3.3611115E1,9.097223E2,4.9722225E1,1.1111112E0,4.4444447E0,1.1111112E0,5.8333335E0,8.055556E0,1.1111112E0,1.6111113E1,1.1944445E1,1.1111112E0,3.25E1,2.852778E2,6.2444446E2,1.9166668E1,3.0555557E1],"tree_param":{"num_deleted":"0","num_feature":"38","num_nodes":"45","size_leaf_vector":"1"}},{"base_weights":[-3.9146505E-3,5.478011E-1,-3.561184E-1,1.141304E-1,1.5660527E0,-1.5069914E-1,-5.175235E-1,4.451901E-1,-5.9426446E-2,2.1380596E0,5.2202636E-1,-3.8596052E-1,3.7168136E-1,-5.270437E-1,1.1249999E-1,1.602671E0,-4.537463E-2,2.4830632E0,2.4626862E-1,9.7389877E-1,-3.9297125E-1,-4.8286784E-1,2.4087587E-1,7.639751E-1,-5.7992566E-2,-1.935484E-1,-5.5315685E-1,5.363128E-1,2.0139859E0,-2.4337547E-1,1.1470587E0,8.823527E-2,2.5733943E0,8.1081074E-1,-3.9130434E-1,1.5306121E0,2.4999996E-1,-5.017065E-1,6.315789E-2,-5.168739E-1,6.106194E-1,1.6987951E0,-1.8633565E-2,2.467866E-1,1.4999999E0,-3.846154E-1,6.666666E-1,-5.6067634E-1,6.1224464E-2,1.6271186E-1,-2.4950781E-9,2.268676E-1,-2.6548693E-3,-4.311649E-2,5.286885E-2,-2.5301207E-2,1.425656E-1,6.315789E-2,-3.75E-2,2.642289E-1,6.17647E-2,1.4271843E-1,-4.2857144E-2,-5.084746E-2,1.5789472E-2,2.2211538E-1,4.1176464E-2,6.0591128E-2,-4.9514562E-2,-5.6043953E-2,1.5789472E-2,-5.3164553E-2,2.307692E-2,1.4117646E-1,-4.2857144E-2,1.5789472E-2,2.1428572E-1,-3.83812E-2,1.1694914E-1,2.181818E-1,-2.6140172E-9,1.8216704E-1,-1.4563108E-2,1.6666664E-2,-5.238095E-2,-2.3076925E-2,1.8749999E-1,1.5789472E-2,-5.632598E-2,1.10526316E-1,-4.6153847E-2],"categories":[],"categories_nodes":[],"categories_segments":[],"categories_sizes":[],"default_left":[0,0,0,0,0,0,0,0,0,0,0,0,0,0,0,0,0,0,0,0,0,0,0,0,0,0,0,0,0,0,0,0,0,0,0,0,0,0,0,0,0,0,0,0,0,0,0,0,0,0,0,0,0,0,0,0,0,0,0,0,0,0,0,0,0,0,0,0,0,0,0,0,0,0,0,0,0,0,0,0,0,0,0,0,0,0,0,0,0,0,0],"id":1,"left_children":[1,3,5,7,9,11,13,15,-1,17,19,21,23,25,-1,27,29,31,33,35,37,39,41,43,-1,45,47,49,51,53,55,57,59,61,63,65,67,69,-1,71,73,75,77,79,81,83,85,87,89,-1,-1,-1,-1,-1,-1,-1,-1,-1,-1,-1,-1,-1,-1,-1,-1,-1,-1,-1,-1,-1,-1,-1,-1,-1,-1,-1,-1,-1,-1,-1,-1,-1,-1,-1,-1,-1,-1,-1,-1,-1,-1],"loss_changes":[2.3184178E2,2.0510963E2,2.4066734E1,7.697899E1,8.176062E1,3.9695473E1,6.9633026E0,1.2698034E2,0E0,5.7694122E1,2.1239586E1,1.3625328E1,3.793991E1,3.4262238E0,0E0,2.811174E1,3.7570293E1,1.6093658E1,5.676333E0,1.3341873E1,2.2540717E0,7.4902916E0,1.1550121E1,2.6868416E1,0E0,5.3515296E0,1.7700882E0,1.1635261E1,2.483281E1,1.9986248E1,9.201969E0,1.1876935E0,8.159149E0,6.892792E0,5.736338E-1,1.3807941E1,4.5433064E0,7.190981E-1,0E0,2.1952667E0,5.83156E0,2.8168316E0,1.2091249E1,2.0640335E1,1.5792915E1,2.0824177E0,6.939102E0,7.78183E-1,3.481616E0,0E0,0E0,0E0,0E0,0E0,0E0,0E0,0E0,0E0,0E0,0E0,0E0,0E0,0E0,0E0,0E0,0E0,0E0,0E0,0E0,0E0,0E0,0E0,0E0,0E0,0E0,0E0,0E0,0E0,0E0,0E0,0E0,0E0,0E0,0E0,0E0,0E0,0E0,0E0,0E0,0E0,0E0],"parents":[2147483647,0,0,1,1,2,2,3,3,4,4,5,5,6,6,7,7,9,9,10,10,11,11,12,12,13,13,15,15,16,16,17,17,18,18,19,19,20,20,21,21,22,22,23,23,25,25,26,26,27,27,28,28,29,29,30,30,31,31,32,32,33,33,34,34,35,35,36,36,37,37,39,39,40,40,41,41,42,42,43,43,44,44,45,45,46,46,47,47,48,48],"right_children":[2,4,6,8,10,12,14,16,-1,18,20,22,24,26,-1,28,30,32,34,36,38,40,42,44,-1,46,48,50,52,54,56,58,60,62,64,66,68,70,-1,72,74,76,78,80,82,84,86,88,90,-1,-1,-1,-1,-1,-1,-1,-1,-1,-1,-1,-1,-1,-1,-1,-1,-1,-1,-1,-1,-1,-1,-1,-1,-1,-1,-1,-1,-1,-1,-1,-1,-1,-1,-1,-1,-1,-1,-1,-1,-1,-1],"split_conditions":[9.312723E-1,8.5651624E-1,1.4729831E-2,3.224119E-1,8.958752E-1,1.5685856E-1,8.9463316E-2,1.3132923E-2,-5.9426446E-2,3.3858237E-1,9.999188E-1,1.7114258E-1,6.705034E-1,9.4004285E-1,1.1249999E-1,3.8416516E-2,1.3013675E-2,1.6021492E-1,4.033721E-1,5.086366E-3,1.3746963E-3,4.4955514E-2,1.9262171E-1,1.1724631E-1,-5.7992566E-2,1.6998854E-1,5.1938616E-2,2.9998028E-3,8.501949E-1,9.005217E-2,1.6223222E-1,3.6915913E-3,9.99995E-1,8.6079323E-1,5.660355E-3,1.0417876E-1,9.980265E-1,8.401952E-2,6.315789E-2,3.047779E-2,8.1160736E-1,2.3209881E-2,1.830908E-1,2.148663E-1,6.73554E-1,1.3800424E-1,1.8604112E-1,1.1591907E-3,2.1392582E-1,1.6271186E-1,-2.4950781E-9,2.268676E-1,-2.6548693E-3,-4.311649E-2,5.286885E-2,-2.5301207E-2,1.425656E-1,6.315789E-2,-3.75E-2,2.642289E-1,6.17647E-2,1.4271843E-1,-4.2857144E-2,-5.084746E-2,1.5789472E-2,2.2211538E-1,4.1176464E-2,6.0591128E-2,-4.9514562E-2,-5.6043953E-2,1.5789472E-2,-5.3164553E-2,2.307692E-2,1.4117646E-1,-4.2857144E-2,1.5789472E-2,2.1428572E-1,-3.83812E-2,1.1694914E-1,2.181818E-1,-2.6140172E-9,1.8216704E-1,-1.4563108E-2,1.6666664E-2,-5.238095E-2,-2.3076925E-2,1.8749999E-1,1.5789472E-2,-5.632598E-2,1.10526316E-1,-4.6153847E-2],"split_indices":[29,4,3,26,29,19,6,3,0,26,4,0,25,29,0,23,6,26,26,3,7,12,25,18,0,19,6,3,0,23,22,3,4,29,6,24,4,13,0,14,28,23,4,22,22,31,4,4,24,0,0,0,0,0,0,0,0,0,0,0,0,0,0,0,0,0,0,0,0,0,0,0,0,0,0,0,0,0,0,0,0,0,0,0,0,0,0,0,0,0,0],"split_type":[0,0,0,0,0,0,0,0,0,0,0,0,0,0,0,0,0,0,0,0,0,0,0,0,0,0,0,0,0,0,0,0,0,0,0,0,0,0,0,0,0,0,0,0,0,0,0,0,0,0,0,0,0,0,0,0,0,0,0,0,0,0,0,0,0,0,0,0,0,0,0,0,0,0,0,0,0,0,0,0,0,0,0,0,0,0,0,0,0,0,0],"sum_hessian":[1.1911112E3,4.6388892E2,7.272222E2,3.261111E2,1.3777779E2,3.2083334E2,4.0638892E2,2.2250002E2,1.03611115E2,8.8333336E1,4.9444447E1,2.213889E2,9.944445E1,4.0472223E2,1.6666667E0,6.555556E1,1.5694446E2,7.444445E1,1.3888889E1,3.3055557E1,1.638889E1,1.9194446E2,2.9444447E1,7.055556E1,2.888889E1,3.0000002E1,3.7472223E2,1.888889E1,4.6666668E1,1.3527779E2,2.1666668E1,2.777778E0,7.166667E1,7.2222223E0,6.666667E0,1.8055557E1,1.5000001E1,1.5277779E1,1.1111112E0,1.8666667E2,5.277778E0,3.6111112E0,2.5833334E1,4.2222225E1,2.8333334E1,2.5000002E1,5E0,3.702778E2,4.4444447E0,5.555556E0,1.3333334E1,4.138889E1,5.277778E0,1.0916667E2,2.6111113E1,3.6111112E0,1.8055557E1,1.1111112E0,1.6666667E0,6.888889E1,2.777778E0,4.7222223E0,2.5E0,5.555556E0,1.1111112E0,1.0555556E1,7.5000005E0,1.0277779E1,4.7222223E0,1.4166667E1,1.1111112E0,1.8333334E2,3.3333335E0,2.777778E0,2.5E0,1.1111112E0,2.5E0,2.0277779E1,5.555556E0,3.888889E0,3.8333336E1,2.3611113E1,4.7222223E0,5E0,2E1,3.3333335E0,1.6666667E0,1.1111112E0,3.691667E2,1.1111112E0,3.3333335E0],"tree_param":{"num_deleted":"0","num_feature":"38","num_nodes":"91","size_leaf_vector":"1"}},{"base_weights":[-9.419179E-3,-1.979216E-1,1.3598931E0,3.978777E-2,-5.168346E-1,-2.6640928E-1,1.7451718E0,-3.8328153E-1,5.7420415E-1,-5.4545456E-1,1.141304E-1,-5.735294E-2,7.4999994E-1,1.9311612E0,1.2605038E-1,-8.504145E-2,-5.596665E-1,1.4166665E0,1.0549869E-1,-5.5419964E-1,2.0388347E-1,-2.779553E-1,1.7671232E-1,1.6764705E-1,-2.3076925E-1,1.4072493E0,2.3957272E0,-4.054054E-1,8.3333325E-1,-3.877841E-1,3.8870427E-1,-5.729614E-1,-9.3750015E-2,5.9253496E-1,1.8739799E0,-4.4758064E-1,6.007237E-1,-2.9842934E-1,-5.733072E-1,1.3255814E-1,-4.6153847E-2,-5E-1,1.3255814E-1,-4.1379314E-2,1.5789472E-2,9.823008E-1,2.3525178E0,2.5945945E0,4.5132738E-1,-5.15625E-2,1.5789472E-2,1.6764705E-1,-4.1379314E-2,9.069767E-2,-4.229935E-2,1.4262293E-1,1.2195119E-2,-5.8235776E-2,4.109587E-3,1.10526316E-1,-5E-2,1.10526316E-1,-3.3333335E-2,2.0498534E-1,-3.0612245E-2,-5.7728708E-2,2.7731089E-2,1.02061845E-1,1.3075962E-2,-4.600432E-2,3.28125E-2,-5.955056E-2,-3.7203167E-2,1.5789472E-2,-5.597015E-2,1.2613635E-1,-2.3948294E-9,1.5789472E-2,2.5116277E-1,2.6474652E-1,1.5789472E-2,-2.727273E-2,1.744186E-1],"categories":[],"categories_nodes":[],"categories_segments":[],"categories_sizes":[],"default_left":[0,0,0,0,0,0,0,0,0,0,0,0,0,0,0,0,0,0,0,0,0,0,0,0,0,0,0,0,0,0,0,0,0,0,0,0,0,0,0,0,0,0,0,0,0,0,0,0,0,0,0,0,0,0,0,0,0,0,0,0,0,0,0,0,0,0,0,0,0,0,0,0,0,0,0,0,0,0,0,0,0,0,0],"id":2,"left_children":[1,3,5,7,9,11,13,15,17,19,21,-1,23,25,27,29,31,33,35,37,39,41,-1,-1,43,45,47,49,51,53,55,57,59,61,63,65,67,69,71,-1,-1,73,-1,-1,-1,75,77,79,81,-1,-1,-1,-1,-1,-1,-1,-1,-1,-1,-1,-1,-1,-1,-1,-1,-1,-1,-1,-1,-1,-1,-1,-1,-1,-1,-1,-1,-1,-1,-1,-1,-1,-1],"loss_changes":[3.1084332E2,8.026397E1,9.1771515E1,1.3754779E2,8.226578E0,9.413411E0,3.5274292E1,1.7817669E1,1.0598193E2,2.9482727E0,1.37415285E1,0E0,6.848416E0,2.2360504E1,5.307934E0,1.8421236E1,1.2670441E0,3.507071E1,4.7866386E1,1.9203339E0,4.8828874E0,6.854224E0,0E0,0E0,3.7358645E-1,1.8621666E1,1.9945862E1,5.9190524E-1,7.002704E0,3.9496222E0,1.371035E1,1.2189484E0,4.016447E0,1.7326431E1,2.4122757E1,7.932661E0,1.8043331E1,3.3743908E0,1.5527496E0,0E0,0E0,7.168102E-1,0E0,0E0,0E0,1.0325321E1,4.996414E0,5.9376526E0,6.3523173E0,0E0,0E0,0E0,0E0,0E0,0E0,0E0,0E0,0E0,0E0,0E0,0E0,0E0,0E0,0E0,0E0,0E0,0E0,0E0,0E0,0E0,0E0,0E0,0E0,0E0,0E0,0E0,0E0,0E0,0E0,0E0,0E0,0E0,0E0],"parents":[2147483647,0,0,1,1,2,2,3,3,4,4,5,5,6,6,7,7,8,8,9,9,10,10,12,12,13,13,14,14,15,15,16,16,17,17,18,18,19,19,20,20,21,21,24,24,25,25,26,26,27,27,28,28,29,29,30,30,31,31,32,32,33,33,34,34,35,35,36,36,37,37,38,38,41,41,45,45,46,46,47,47,48,48],"right_children":[2,4,6,8,10,12,14,16,18,20,22,-1,24,26,28,30,32,34,36,38,40,42,-1,-1,44,46,48,50,52,54,56,58,60,62,64,66,68,70,72,-1,-1,74,-1,-1,-1,76,78,80,82,-1,-1,-1,-1,-1,-1,-1,-1,-1,-1,-1,-1,-1,-1,-1,-1,-1,-1,-1,-1,-1,-1,-1,-1,-1,-1,-1,-1,-1,-1,-1,-1,-1,-1],"split_conditions":[8.2010084E-1,9.046073E-1,3.0034338E-3,1.5771123E-2,7.698987E-1,1.0016402E-1,5.0723955E-2,1.7697655E-2,6.6357024E-2,8.2171656E-2,4.8908633E-1,-5.735294E-2,1.4449378E-2,8.986129E-2,1.2864286E-1,6.0621235E-3,1.2365172E-2,1.00903906E-1,8.9680976E-1,4.1290167E-1,7.932585E-2,1.6138001E-1,1.7671232E-1,1.6764705E-1,1.0488307E-1,9.9972004E-1,1.110853E-1,9.953455E-1,5.2651964E-2,1.3198444E-1,1.4995976E-2,8.042215E-1,6.5862364E-3,8.139807E-2,8.4678835E-1,5.898401E-1,1.7844196E-1,1.7901407E-1,9.466397E-1,1.3255814E-1,-4.6153847E-2,8.085169E-5,1.3255814E-1,-4.1379314E-2,1.5789472E-2,2.889828E-1,3.1577817E-3,8.30419E-1,6.81856E-2,-5.15625E-2,1.5789472E-2,1.6764705E-1,-4.1379314E-2,9.069767E-2,-4.229935E-2,1.4262293E-1,1.2195119E-2,-5.8235776E-2,4.109587E-3,1.10526316E-1,-5E-2,1.10526316E-1,-3.3333335E-2,2.0498534E-1,-3.0612245E-2,-5.7728708E-2,2.7731089E-2,1.02061845E-1,1.3075962E-2,-4.600432E-2,3.28125E-2,-5.955056E-2,-3.7203167E-2,1.5789472E-2,-5.597015E-2,1.2613635E-1,-2.3948294E-9,1.5789472E-2,2.5116277E-1,2.6474652E-1,1.5789472E-2,-2.727273E-2,1.744186E-1],"split_indices":[21,32,17,17,21,24,23,27,23,7,20,0,23,18,18,17,16,19,29,25,0,19,0,0,2,8,5,8,5,22,10,21,36,9,22,20,23,24,1,0,0,5,0,0,0,2,0,0,17,0,0,0,0,0,0,0,0,0,0,0,0,0,0,0,0,0,0,0,0,0,0,0,0,0,0,0,0,0,0,0,0,0,0],"split_type":[0,0,0,0,0,0,0,0,0,0,0,0,0,0,0,0,0,0,0,0,0,0,0,0,0,0,0,0,0,0,0,0,0,0,0,0,0,0,0,0,0,0,0,0,0,0,0,0,0,0,0,0,0,0,0,0,0,0,0,0,0,0,0,0,0,0,0,0,0,0,0,0,0,0,0,0,0,0,0,0,0,0,0],"sum_hessian":[1.2022223E3,1.0575E3,1.4472223E2,6.063889E2,4.5111115E2,2.7777779E1,1.1694445E2,3.386111E2,2.677778E2,4.316667E2,1.9444445E1,2.1666668E1,6.1111116E0,1.0472223E2,1.2222223E1,1.2638889E2,2.1222223E2,9.500001E1,1.7277779E2,4.2694446E2,4.7222223E0,1.638889E1,3.0555558E0,2.777778E0,3.3333335E0,5.1111115E1,5.3611115E1,7.2222223E0,5E0,7.722223E1,4.9166668E1,2.0611111E2,6.1111116E0,3.4722225E1,6.0277782E1,8.166667E1,9.1111115E1,3.0833334E1,3.9611115E2,1.388889E0,3.3333335E0,1.5000001E1,1.388889E0,2.2222223E0,1.1111112E0,3.6666668E1,1.4444445E1,4.8333336E1,5.277778E0,6.1111116E0,1.1111112E0,2.777778E0,2.2222223E0,1.388889E0,7.5833336E1,9.166667E0,4E1,2.0305557E2,3.0555558E0,1.1111112E0,5E0,2.2222223E1,1.2500001E1,5.5833336E1,4.4444447E0,6.944445E1,1.2222223E1,4.7500004E1,4.3611115E1,2.4722223E1,6.1111116E0,3.5500003E2,4.1111115E1,1.1111112E0,1.3888889E1,2.8333334E1,8.333334E0,1.1111112E0,1.3333334E1,4.7222225E1,1.1111112E0,3.888889E0,1.388889E0],"tree_param":{"num_deleted":"0","num_feature":"38","num_nodes":"83","size_leaf_vector":"1"}},{"base_weights":[1.2279786E-2,6.5759516E-1,-2.3697287E-1,1.1810905E0,-3.5285646E-1,2.7377677E-1,-3.90462E-1,8.281417E-1,1.9697464E0,-5.556745E-1,1.3004291E0,2.1486485E0,1.9327249E-1,7.100591E-1,-4.2150027E-1,1.5500724E0,1.23517066E-1,-4.177215E-1,2.2853184E0,-5.746753E-1,6.315789E-2,1.9285713E0,-2.5301206E-1,2.3898304E-1,7.4999996E-2,-6.288535E-2,7.602927E-1,1.2676053E-1,1.4895104E0,-4.3157175E-1,1.5714285E-1,2.3793101E0,1.0664451E0,-1.6591117E-1,1.0344827E0,1.5789472E-2,-5.2173913E-2,2.7774723E0,1.2144771E0,-5.842451E-1,1.5789472E-2,2.4146341E-1,4.285714E-1,1.5789472E-2,-4.2857144E-2,-1.1101768E-1,1.5205479E0,1.490066E0,2.3708202E-1,1.4482759E-1,-3.2947978E-1,-3.488372E-2,1.9322033E-1,-5.56772E-1,-3.134476E-1,2.625866E-1,4.615384E-2,7.100589E-3,1.6106346E-1,-2.6949657E-2,8.333333E-2,4.91803E-3,1.9180326E-1,1.5789472E-2,2.8474575E-1,2.2211538E-1,-4.9180347E-3,-5.938215E-2,-3.0612245E-2,-3.488372E-2,1.10526316E-1,2.270703E-2,-4.0769838E-2,1.5789472E-2,1.9811319E-1,2.0064934E-1,3.4969322E-2,1.4117646E-1,9.868418E-3,-5.2941173E-2,6.315789E-2,1.5789473E-1,-5.6937795E-2,-4.2366188E-2,2.3753662E-2],"categories":[],"categories_nodes":[],"categories_segments":[],"categories_sizes":[],"default_left":[0,0,0,0,0,0,0,0,0,0,0,0,0,0,0,0,0,0,0,0,0,0,0,0,0,0,0,0,0,0,0,0,0,0,0,0,0,0,0,0,0,0,0,0,0,0,0,0,0,0,0,0,0,0,0,0,0,0,0,0,0,0,0,0,0,0,0,0,0,0,0,0,0,0,0,0,0,0,0,0,0,0,0,0,0],"id":3,"left_children":[1,3,5,7,9,11,13,15,17,19,21,23,25,27,29,31,33,35,37,39,-1,41,43,-1,-1,45,47,49,51,53,-1,55,57,59,61,-1,-1,63,65,67,-1,-1,69,-1,-1,71,73,75,77,-1,79,-1,-1,81,83,-1,-1,-1,-1,-1,-1,-1,-1,-1,-1,-1,-1,-1,-1,-1,-1,-1,-1,-1,-1,-1,-1,-1,-1,-1,-1,-1,-1,-1,-1],"loss_changes":[1.9444958E2,1.7859035E2,6.847563E1,6.019452E1,3.9526146E1,3.0090408E1,2.321949E1,7.874032E1,5.2145203E1,2.7040558E0,1.3118904E1,9.8121643E-1,2.8354776E1,8.348561E0,1.378952E1,2.8164581E1,2.1161833E1,6.079428E-1,2.8335785E1,8.1199265E-1,0E0,5.7700386E0,4.0030798E-1,0E0,0E0,1.0470445E1,2.2832008E1,7.611832E0,7.1393986E0,9.449135E0,0E0,1.1738556E1,2.7061295E1,6.5672674E0,1.673657E1,0E0,0E0,6.965149E0,2.6469862E1,8.8703156E-2,0E0,0E0,2.2267876E0,0E0,0E0,1.3343872E1,2.232522E0,1.4119488E1,5.803647E0,0E0,2.1811056E0,0E0,0E0,9.369232E0,2.0572151E1,0E0,0E0,0E0,0E0,0E0,0E0,0E0,0E0,0E0,0E0,0E0,0E0,0E0,0E0,0E0,0E0,0E0,0E0,0E0,0E0,0E0,0E0,0E0,0E0,0E0,0E0,0E0,0E0,0E0,0E0],"parents":[2147483647,0,0,1,1,2,2,3,3,4,4,5,5,6,6,7,7,8,8,9,9,10,10,11,11,12,12,13,13,14,14,15,15,16,16,17,17,18,18,19,19,21,21,22,22,25,25,26,26,27,27,28,28,29,29,31,31,32,32,33,33,34,34,37,37,38,38,39,39,42,42,45,45,46,46,47,47,48,48,50,50,53,53,54,54],"right_children":[2,4,6,8,10,12,14,16,18,20,22,24,26,28,30,32,34,36,38,40,-1,42,44,-1,-1,46,48,50,52,54,-1,56,58,60,62,-1,-1,64,66,68,-1,-1,70,-1,-1,72,74,76,78,-1,80,-1,-1,82,84,-1,-1,-1,-1,-1,-1,-1,-1,-1,-1,-1,-1,-1,-1,-1,-1,-1,-1,-1,-1,-1,-1,-1,-1,-1,-1,-1,-1,-1,-1],"split_conditions":[2.3158057E-1,1.8123254E-1,2.2335535E-2,9.2869356E-2,6.0230885E-2,4.9706646E-3,5.736858E-3,9.101692E-2,4.5007303E-2,4.430132E-1,2.4186094E-1,9.974782E-1,2.8337514E-1,1.6480194E-2,2.9329765E-1,9.614984E-2,4.264218E-3,1.4069186E-1,3.6359108E-3,2.0849471E-1,6.315789E-2,6.7103165E-4,8.629598E-4,2.3898304E-1,7.4999996E-2,5.7214296E-1,2.5365066E-3,2.8216949E-2,8.277454E-2,4.6523575E-2,1.5714285E-1,1.544578E-2,2.8822866E-1,6.9533974E-2,7.061628E-3,1.5789472E-2,-5.2173913E-2,1.6689414E-1,9.996473E-1,2.6832178E-2,1.5789472E-2,2.4146341E-1,9.908963E-3,1.5789472E-2,-4.2857144E-2,1.3402011E-2,2.1224163E-2,5.569826E-3,3.610668E-1,1.4482759E-1,3.2219258E-1,-3.488372E-2,1.9322033E-1,3.3136248E-3,1.0488307E-1,2.625866E-1,4.615384E-2,7.100589E-3,1.6106346E-1,-2.6949657E-2,8.333333E-2,4.91803E-3,1.9180326E-1,1.5789472E-2,2.8474575E-1,2.2211538E-1,-4.9180347E-3,-5.938215E-2,-3.0612245E-2,-3.488372E-2,1.10526316E-1,2.270703E-2,-4.0769838E-2,1.5789472E-2,1.9811319E-1,2.0064934E-1,3.4969322E-2,1.4117646E-1,9.868418E-3,-5.2941173E-2,6.315789E-2,1.5789473E-1,-5.6937795E-2,-4.2366188E-2,2.3753662E-2],"split_indices":[37,26,0,2,2,23,23,8,26,11,26,8,10,13,15,23,13,2,17,3,0,16,0,0,0,37,16,18,26,26,0,0,20,2,3,0,0,20,8,2,0,0,9,0,0,11,2,6,21,0,2,0,0,10,2,0,0,0,0,0,0,0,0,0,0,0,0,0,0,0,0,0,0,0,0,0,0,0,0,0,0,0,0,0,0],"split_type":[0,0,0,0,0,0,0,0,0,0,0,0,0,0,0,0,0,0,0,0,0,0,0,0,0,0,0,0,0,0,0,0,0,0,0,0,0,0,0,0,0,0,0,0,0,0,0,0,0,0,0,0,0,0,0,0,0,0,0,0,0,0,0,0,0,0,0,0,0,0,0,0,0,0,0,0,0,0,0,0,0,0,0,0,0],"sum_hessian":[1.2069445E3,3.3583334E2,8.7111115E2,2.2111111E2,1.1472223E2,2.0111111E2,6.7000006E2,1.5416667E2,6.694445E1,1.0277779E2,1.1944445E1,7.2222223E0,1.938889E2,1.7777779E1,6.522222E2,7.555556E1,7.8611115E1,7.777778E0,5.9166668E1,1.0166667E2,1.1111112E0,8.333334E0,3.6111112E0,5.555556E0,1.6666667E0,1.3416667E2,5.9722225E1,1.0833334E1,6.9444447E0,6.497222E2,2.5E0,2.638889E1,4.9166668E1,6.0277782E1,1.8333334E1,1.1111112E0,6.666667E0,3.9444447E1,1.9722223E1,1.0055556E2,1.1111112E0,5.8333335E0,2.5E0,1.1111112E0,2.5E0,1.3111111E2,3.0555558E0,2.4166668E1,3.5555557E1,2.2222223E0,8.611112E0,1.388889E0,5.555556E0,3.136111E2,3.361111E2,2.3055557E1,3.3333335E0,1.7777779E1,3.1388891E1,5.527778E1,5E0,9.166667E0,9.166667E0,1.1111112E0,3.8333336E1,1.0555556E1,9.166667E0,9.6111115E1,4.4444447E0,1.388889E0,1.1111112E0,6.1388893E1,6.972223E1,1.1111112E0,1.9444445E0,1.6111113E1,8.055556E0,2.777778E0,3.277778E1,7.5000005E0,1.1111112E0,1.1111112E0,3.125E2,2.802778E2,5.5833336E1],"tree_param":{"num_deleted":"0","num_feature":"38","num_nodes":"85","size_leaf_vector":"1"}},{"base_weights":[-1.3999933E-2,-5.031431E-1,1.3386059E0,2.2068459E-1,-5.7081014E-1,3.464849E-1,2.257794E0,-5.231911E-1,2.769968E-1,-5.9782445E-2,-2.948237E-1,4.0194854E-2,2.5276966E0,2.3701887E0,-2.7272728E-1,-5.895954E-2,8.275862E-1,-5.317395E-1,1.8260869E0,-2.5380978E-1,1.0069203E0,2.721362E-1,-3.1578947E-2,2.2556366E-2,2.468465E0,6.315789E-2,-5.121951E-2,-3.1578947E-2,1.5789473E-1,-5.9083194E-2,9.622641E-2,2.237288E0,-3.1578947E-2,1.9999999E0,-3.8554883E-1,4.4845355E-1,1.9615383E0,-5.0442476E-2,1.5789473E-1,2.5254362E0,-4.411765E-2,2.4489795E-1,6.315789E-2,1.5789472E-2,2.3863636E-1,-4.4206973E-2,1.6415094E-1,-4.5812808E-2,1.3152708E-1,2.3918918E-1,6.9230765E-2,2.2055335E-1,2.8943837E-1],"categories":[],"categories_nodes":[],"categories_segments":[],"categories_sizes":[],"default_left":[0,0,0,0,0,0,0,0,0,0,0,0,0,0,0,0,0,0,0,0,0,0,0,0,0,0,0,0,0,0,0,0,0,0,0,0,0,0,0,0,0,0,0,0,0,0,0,0,0,0,0,0,0],"id":4,"left_children":[1,3,5,7,9,11,13,15,-1,-1,17,19,21,23,25,-1,27,29,31,33,35,-1,-1,37,39,-1,-1,-1,-1,-1,-1,41,-1,43,45,47,49,-1,-1,51,-1,-1,-1,-1,-1,-1,-1,-1,-1,-1,-1,-1,-1],"loss_changes":[7.961955E2,4.3412796E1,2.9068573E2,1.4609859E2,5.851593E0,1.0337709E2,4.778058E1,5.8598194E0,0E0,0E0,3.8182224E1,3.9146576E1,1.1353004E1,3.6577087E1,2.043879E0,0E0,3.2667875E0,6.5179195E0,7.458868E0,3.2161583E1,1.6239498E1,0E0,0E0,6.8567433E0,2.6374939E1,0E0,0E0,0E0,0E0,0E0,0E0,6.816063E-1,0E0,3.8935356E0,1.2265529E1,1.7541794E1,4.6559258E0,0E0,0E0,1.1274658E1,0E0,0E0,0E0,0E0,0E0,0E0,0E0,0E0,0E0,0E0,0E0,0E0,0E0],"parents":[2147483647,0,0,1,1,2,2,3,3,4,4,5,5,6,6,7,7,10,10,11,11,12,12,13,13,14,14,16,16,17,17,18,18,19,19,20,20,23,23,24,24,31,31,33,33,34,34,35,35,36,36,39,39],"right_children":[2,4,6,8,10,12,14,16,-1,-1,18,20,22,24,26,-1,28,30,32,34,36,-1,-1,38,40,-1,-1,-1,-1,-1,-1,42,-1,44,46,48,50,-1,-1,52,-1,-1,-1,-1,-1,-1,-1,-1,-1,-1,-1,-1,-1],"split_conditions":[4.869899E-1,4.7273684E-2,3.902499E-2,2.2847682E-1,3.8123894E-1,1.9269635E-1,5.412219E-1,1.6884369E-1,2.769968E-1,-5.9782445E-2,1.2442849E-1,6.666847E-1,3.518586E-1,2.8216949E-2,2.7860748E-2,-5.895954E-2,5.1219705E-2,1.3951923E-1,7.627246E-2,2.0493805E-1,3.7789267E-2,2.721362E-1,-3.1578947E-2,7.037364E-1,4.9892408E-1,6.315789E-2,-5.121951E-2,-3.1578947E-2,1.5789473E-1,-5.9083194E-2,9.622641E-2,8.351418E-2,-3.1578947E-2,4.046463E-2,3.1081772E-1,6.0531497E-2,4.9589407E-2,-5.0442476E-2,1.5789473E-1,1.03529386E-1,-4.411765E-2,2.4489795E-1,6.315789E-2,1.5789472E-2,2.3863636E-1,-4.4206973E-2,1.6415094E-1,-4.5812808E-2,1.3152708E-1,2.3918918E-1,6.9230765E-2,2.2055335E-1,2.8943837E-1],"split_indices":[35,26,36,2,35,3,4,30,0,0,3,25,20,18,5,0,9,12,26,20,5,0,0,22,20,0,0,0,0,0,0,9,0,2,11,30,3,0,0,10,0,0,0,0,0,0,0,0,0,0,0,0,0],"split_type":[0,0,0,0,0,0,0,0,0,0,0,0,0,0,0,0,0,0,0,0,0,0,0,0,0,0,0,0,0,0,0,0,0,0,0,0,0,0,0,0,0,0,0,0,0,0,0,0,0,0,0,0,0],"sum_hessian":[1.2013889E3,8.8277783E2,3.186111E2,7.527778E1,8.0750006E2,1.538889E2,1.6472223E2,5.8888893E1,1.638889E1,7.3444446E2,7.305556E1,1.3583334E2,1.8055557E1,1.5777779E2,6.9444447E0,5.6666668E1,2.2222223E0,6.638889E1,6.666667E0,1.0472223E2,3.1111113E1,1.6944445E1,1.1111112E0,6.3888893E0,1.513889E2,1.1111112E0,5.8333335E0,1.1111112E0,1.1111112E0,6.444445E1,1.9444445E0,5.555556E0,1.1111112E0,5E0,9.972223E1,2.0555557E1,1.0555556E1,5.277778E0,1.1111112E0,1.4861111E2,2.777778E0,4.4444447E0,1.1111112E0,1.1111112E0,3.888889E0,9.777779E1,1.9444445E0,1.0277779E1,1.0277779E1,7.2222223E0,3.3333335E0,8.3333336E1,6.527778E1],"tree_param":{"num_deleted":"0","num_feature":"38","num_nodes":"53","size_leaf_vector":"1"}},{"base_weights":[-7.915594E-3,8.3362424E-1,-5.0393295E-1,1.4384197E0,2.6735523E-1,-1.8235731E-1,-5.825323E-1,2.0667148E0,-1.1385704E-1,-4.2909312E-1,7.16312E-1,-3.8653588E-1,7.9281175E-1,-5.874184E-1,3.5294113E-1,2.6466627E0,9.8791534E-1,4.8529407E-1,-4.4010767E-1,-5.4701555E-1,-8.21918E-2,-2.591912E-1,1.4305176E0,3.0927807E-2,-4.693006E-1,1.9746834E0,1.8918915E-1,-5.989138E-2,-4.556962E-1,-3.75E-2,1.10526316E-1,-4.1379314E-2,2.7211702E0,1.948905E0,-1.8790498E-1,9.646642E-1,-5.2447554E-2,-5.338983E-1,9.622641E-2,-5.6109726E-1,1.5789472E-2,-4.1860464E-1,3.636363E-1,-3.9688715E-1,1.6153845E0,1.060552E0,2.504132E0,-4.86166E-1,8.823529E-1,7.4999996E-2,-4.9647313E-1,-3.488372E-2,2.4586466E-1,-4.6478873E-1,1.173913E0,-5.1029253E-1,9.069767E-2,2.7583185E-1,3.7499998E-2,-2.5301207E-2,2.2546582E-1,-4.3920595E-2,1.153846E-1,-5.15625E-2,1.9595374E-1,-5.8346093E-2,4.109587E-3,-5.7446808E-2,-2.9032258E-2,4.8837207E-2,-5.5364806E-2,1.16326526E-1,-3.5593223E-2,-5.398458E-2,4.4776094E-3,1.5789472E-2,2.0689654E-1,2.0624998E-1,6.998827E-2,2.8353658E-1,-3.9622642E-2,1.5789472E-2,-5.5364806E-2,1.9772726E-1,-4.698795E-2,-5.7954546E-2,-2.1854306E-2,-5.4404147E-2,1.5789472E-2,2.181818E-1,-4.411765E-2,-7.317075E-3,-5.6479216E-2],"categories":[],"categories_nodes":[],"categories_segments":[],"categories_sizes":[],"default_left":[0,0,0,0,0,0,0,0,0,0,0,0,0,0,0,0,0,0,0,0,0,0,0,0,0,0,0,0,0,0,0,0,0,0,0,0,0,0,0,0,0,0,0,0,0,0,0,0,0,0,0,0,0,0,0,0,0,0,0,0,0,0,0,0,0,0,0,0,0,0,0,0,0,0,0,0,0,0,0,0,0,0,0,0,0,0,0,0,0,0,0,0,0],"id":5,"left_children":[1,3,5,7,9,11,13,15,17,19,21,23,25,27,29,31,33,35,37,39,41,43,45,47,49,51,53,-1,55,-1,-1,-1,57,59,61,63,-1,65,-1,67,-1,69,71,73,75,77,79,81,83,-1,85,-1,-1,87,89,91,-1,-1,-1,-1,-1,-1,-1,-1,-1,-1,-1,-1,-1,-1,-1,-1,-1,-1,-1,-1,-1,-1,-1,-1,-1,-1,-1,-1,-1,-1,-1,-1,-1,-1,-1,-1,-1],"loss_changes":[5.0139178E2,1.5216986E2,1.8995117E1,2.1008481E2,7.262219E1,3.0150621E1,2.9810486E0,9.324841E1,1.25175495E1,3.6889782E0,9.860688E1,4.3199844E0,1.8373096E1,6.417389E-1,2.4833589E0,2.3713318E1,6.270185E1,1.1477819E1,5.9429893E0,7.630348E-1,3.8017895E0,1.6243137E1,2.9738113E1,9.919163E0,3.8198738E0,1.0728264E1,1.2459393E1,0E0,4.3810625E0,0E0,0E0,0E0,7.4052734E0,2.106697E1,9.179881E0,2.4164507E1,0E0,1.1449089E0,0E0,7.518959E-2,0E0,2.0259504E0,6.743309E0,3.6301422E0,2.538043E0,2.1102089E1,2.049749E1,6.983087E-1,1.3514059E1,0E0,2.2373276E0,0E0,0E0,6.698687E-1,1.3442802E1,1.1802635E0,0E0,0E0,0E0,0E0,0E0,0E0,0E0,0E0,0E0,0E0,0E0,0E0,0E0,0E0,0E0,0E0,0E0,0E0,0E0,0E0,0E0,0E0,0E0,0E0,0E0,0E0,0E0,0E0,0E0,0E0,0E0,0E0,0E0,0E0,0E0,0E0,0E0],"parents":[2147483647,0,0,1,1,2,2,3,3,4,4,5,5,6,6,7,7,8,8,9,9,10,10,11,11,12,12,13,13,14,14,15,15,16,16,17,17,18,18,19,19,20,20,21,21,22,22,23,23,24,24,25,25,26,26,28,28,32,32,33,33,34,34,35,35,37,37,39,39,41,41,42,42,43,43,44,44,45,45,46,46,47,47,48,48,50,50,53,53,54,54,55,55],"right_children":[2,4,6,8,10,12,14,16,18,20,22,24,26,28,30,32,34,36,38,40,42,44,46,48,50,52,54,-1,56,-1,-1,-1,58,60,62,64,-1,66,-1,68,-1,70,72,74,76,78,80,82,84,-1,86,-1,-1,88,90,92,-1,-1,-1,-1,-1,-1,-1,-1,-1,-1,-1,-1,-1,-1,-1,-1,-1,-1,-1,-1,-1,-1,-1,-1,-1,-1,-1,-1,-1,-1,-1,-1,-1,-1,-1,-1,-1],"split_conditions":[1.5421999E-1,3.4962276E-1,9.369174E-2,4.1931236E-1,3.7736244E-2,6.4097905E-1,9.985798E-1,2.3487984E-1,4.8151094E-1,2.3800276E-2,2.0360836E-1,1.6687737E-1,2.1095982E-1,8.0775887E-1,4.6640127E-3,8.1745684E-1,3.4574905E-1,6.67842E-2,6.3058394E-1,1.1305926E-1,2.9638853E-2,9.878357E-1,2.1194726E-2,2.0254849E-2,4.2721994E-2,9.3089446E-4,7.4852346E-3,-5.989138E-2,8.7962484E-1,-3.75E-2,1.10526316E-1,-4.1379314E-2,1.0025206E-1,6.9480464E-2,9.006157E-1,6.4543736E-1,-5.2447554E-2,2.5826689E-2,9.622641E-2,7.632206E-2,1.5789472E-2,1.35146445E-2,9.823533E-1,3.2262355E-1,1.1193215E-1,4.4712362E-1,9.193793E-1,7.4769873E-3,4.366473E-2,7.4999996E-2,9.044592E-1,-3.488372E-2,2.4586466E-1,2.3288868E-2,2.307392E-3,1.8948305E-1,9.069767E-2,2.7583185E-1,3.7499998E-2,-2.5301207E-2,2.2546582E-1,-4.3920595E-2,1.153846E-1,-5.15625E-2,1.9595374E-1,-5.8346093E-2,4.109587E-3,-5.7446808E-2,-2.9032258E-2,4.8837207E-2,-5.5364806E-2,1.16326526E-1,-3.5593223E-2,-5.398458E-2,4.4776094E-3,1.5789472E-2,2.0689654E-1,2.0624998E-1,6.998827E-2,2.8353658E-1,-3.9622642E-2,1.5789472E-2,-5.5364806E-2,1.9772726E-1,-4.698795E-2,-5.7954546E-2,-2.1854306E-2,-5.4404147E-2,1.5789472E-2,2.181818E-1,-4.411765E-2,-7.317075E-3,-5.6479216E-2],"split_indices":[30,1,26,20,3,10,10,10,20,3,0,30,20,10,0,32,35,26,25,2,5,29,14,5,20,1,3,0,22,0,0,0,5,23,9,28,0,2,0,5,0,26,29,20,0,28,1,0,26,0,1,0,0,0,13,20,0,0,0,0,0,0,0,0,0,0,0,0,0,0,0,0,0,0,0,0,0,0,0,0,0,0,0,0,0,0,0,0,0,0,0,0,0],"split_type":[0,0,0,0,0,0,0,0,0,0,0,0,0,0,0,0,0,0,0,0,0,0,0,0,0,0,0,0,0,0,0,0,0,0,0,0,0,0,0,0,0,0,0,0,0,0,0,0,0,0,0,0,0,0,0,0,0,0,0,0,0,0,0,0,0,0,0,0,0,0,0,0,0,0,0,0,0,0,0,0,0,0,0,0,0,0,0,0,0,0,0,0,0],"sum_hessian":[1.1991667E3,4.4444446E2,7.547222E2,2.1416667E2,2.3027779E2,1.488889E2,6.058334E2,1.5222223E2,6.1944447E1,9.027778E1,1.4E2,1.23611115E2,2.5277779E1,6.030556E2,2.777778E0,9.805556E1,5.4166668E1,2.1666668E1,4.027778E1,6.694445E1,2.3333334E1,5.9444447E1,8.055556E1,2.0555557E1,1.0305556E2,7.777778E0,1.75E1,5.513889E2,5.1666668E1,1.6666667E0,1.1111112E0,2.2222223E0,9.5833336E1,2.9444447E1,2.4722223E1,1.4722223E1,6.9444447E0,3.8333336E1,1.9444445E0,6.5833336E1,1.1111112E0,1.3333334E1,1E1,5.6111115E1,3.3333335E0,6.1388893E1,1.9166668E1,1.3055556E1,7.5000005E0,1.6666667E0,1.0138889E2,1.388889E0,6.3888893E0,1.0833334E1,6.666667E0,5.027778E1,1.388889E0,9.416667E1,1.6666667E0,3.6111112E0,2.5833334E1,2.138889E1,3.3333335E0,6.1111116E0,8.611112E0,3.527778E1,3.0555558E0,6.1666668E1,4.166667E0,1.388889E0,1.1944445E1,4.4444447E0,5.555556E0,4.2222225E1,1.3888889E1,1.1111112E0,2.2222223E0,1.5000001E1,4.638889E1,1.7222223E1,1.9444445E0,1.1111112E0,1.1944445E1,3.888889E0,3.6111112E0,7.722223E1,2.4166668E1,9.722222E0,1.1111112E0,3.888889E0,2.777778E0,5.8333335E0,4.4444447E1],"tree_param":{"num_deleted":"0","num_feature":"38","num_nodes":"93","size_leaf_vector":"1"}},{"base_weights":[-5.547544E-3,-3.049668E-1,2.1591573E0,6.806055E-1,-4.2868945E-1,1.2145205E0,2.22194E-1,1.6626391E0,-1.5444219E-1,-4.5544055E-1,4.868412E-2,1.6940832E0,-1.7747647E-1,1.9432633E0,-5.112755E-2,8.77171E-1,-3.0533597E-1,-2.5999862E-1,-4.9592718E-1,5.021963E-1,-4.857076E-1,1.9675092E-1,8.838983E-3,-3.7600517E-2,1.5812218E-2,2.184859E0,-4.8443567E-2,-4.235929E-2,1.4762111E0,-3.6654636E-1,8.2524854E-1,7.4869806E-1,-3.572453E-1,-1.5943067E-1,-5.1606566E-1,2.3084247E-1,-7.356322E-2,4.766817E-2,-5.6837942E-2,2.2243157E-1,7.349148E-2,3.130176E-2,1.9040777E-1,8.828731E-2,-4.16617E-2,1.5180582E-1,-3.0494181E-2,-1.219763E-2,2.2454289E-1,9.9632636E-2,-3.952553E-2,-5.1062103E-2,7.0637695E-2,-2.045673E-2,-5.280782E-2,4.07138E-2,-5.471933E-2],"categories":[],"categories_nodes":[],"categories_segments":[],"categories_sizes":[],"default_left":[0,0,0,0,0,0,0,0,0,0,0,0,0,0,0,0,0,0,0,0,0,0,0,0,0,0,0,0,0,0,0,0,0,0,0,0,0,0,0,0,0,0,0,0,0,0,0,0,0,0,0,0,0,0,0,0,0],"id":6,"left_children":[1,3,5,7,9,11,-1,13,15,17,19,21,23,25,-1,27,29,31,33,35,37,-1,-1,-1,-1,39,-1,-1,41,43,45,47,49,51,53,-1,55,-1,-1,-1,-1,-1,-1,-1,-1,-1,-1,-1,-1,-1,-1,-1,-1,-1,-1,-1,-1],"loss_changes":[7.7285864E2,1.2802048E2,5.894409E0,9.637927E1,1.1914825E1,7.80072E0,0E0,3.3907227E1,1.0271415E1,6.849777E0,1.2439402E1,3.5364761E0,3.1157058E-1,2.9206894E1,0E0,7.216344E0,4.2336206E0,1.5319789E1,4.861252E0,2.8989103E1,2.1493268E0,0E0,0E0,0E0,0E0,8.72818E-1,0E0,0E0,2.3973236E0,3.782318E0,2.988171E0,1.827851E1,7.629341E0,1.3326198E1,2.4658508E0,0E0,5.227711E0,0E0,0E0,0E0,0E0,0E0,0E0,0E0,0E0,0E0,0E0,0E0,0E0,0E0,0E0,0E0,0E0,0E0,0E0,0E0,0E0],"parents":[2147483647,0,0,1,1,2,2,3,3,4,4,5,5,7,7,8,8,9,9,10,10,11,11,12,12,13,13,15,15,16,16,17,17,18,18,19,19,20,20,25,25,28,28,29,29,30,30,31,31,32,32,33,33,34,34,36,36],"right_children":[2,4,6,8,10,12,-1,14,16,18,20,22,24,26,-1,28,30,32,34,36,38,-1,-1,-1,-1,40,-1,-1,42,44,46,48,50,52,54,-1,56,-1,-1,-1,-1,-1,-1,-1,-1,-1,-1,-1,-1,-1,-1,-1,-1,-1,-1,-1,-1],"split_conditions":[3.5380315E-2,1.5604323E-1,4.0576283E-2,1.8015723E-1,9.79385E-1,6.848802E-3,2.22194E-1,5.6791365E-2,1.0925229E-1,1.8072998E-3,1.0043859E-1,2.0226188E-1,1.1323246E-1,2.6425954E-2,-5.112755E-2,1.2310722E-4,2.3272905E-1,3.094832E-2,1.9093974E-1,4.5628E-1,8.8426754E-2,1.9675092E-1,8.838983E-3,-3.7600517E-2,1.5812218E-2,6.652496E-1,-4.8443567E-2,-4.235929E-2,8.8381654E-1,6.295129E-2,7.7928346E-1,9.9776936E-1,1.6804143E-3,9.839697E-1,3.8955957E-2,2.3084247E-1,2.4351949E-2,4.766817E-2,-5.6837942E-2,2.2243157E-1,7.349148E-2,3.130176E-2,1.9040777E-1,8.828731E-2,-4.16617E-2,1.5180582E-1,-3.0494181E-2,-1.219763E-2,2.2454289E-1,9.9632636E-2,-3.952553E-2,-5.1062103E-2,7.0637695E-2,-2.045673E-2,-5.280782E-2,4.07138E-2,-5.471933E-2],"split_indices":[27,35,27,37,1,13,0,2,8,12,26,1,19,11,0,36,31,26,35,35,20,0,0,0,0,20,0,0,28,20,4,4,4,4,19,0,11,0,0,0,0,0,0,0,0,0,0,0,0,0,0,0,0,0,0,0,0],"split_type":[0,0,0,0,0,0,0,0,0,0,0,0,0,0,0,0,0,0,0,0,0,0,0,0,0,0,0,0,0,0,0,0,0,0,0,0,0,0,0,0,0,0,0,0,0,0,0,0,0,0,0,0,0,0,0,0,0],"sum_hessian":[1.1903832E3,1.0464927E3,1.4389046E2,1.1621612E2,9.302766E2,1.0235206E1,1.3365524E2,5.295217E1,6.3263943E1,8.809555E2,4.932111E1,7.4511585E0,2.7840474E0,4.6992188E1,5.959983E0,7.45861E0,5.5805332E1,1.5245042E2,7.2850507E2,2.67121E1,2.2609009E1,6.1744137E0,1.276745E0,1.6736008E0,1.1104466E0,4.2829937E1,4.162252E0,2.4441752E0,5.014435E0,5.358026E1,2.2250702E0,1.2816069E1,1.3963435E2,4.1640816E1,6.8686426E2,5.7292824E0,2.0982817E1,1.4115133E0,2.1197496E1,4.1175385E1,1.6545514E0,1.8141322E0,3.2003026E0,1.4236318E0,5.215663E1,1.166695E0,1.0583752E0,8.68333E0,4.132739E0,3.1253572E0,1.36509E2,2.9916338E1,1.1724479E1,2.6173853E1,6.606904E2,1.0483346E1,1.0499472E1],"tree_param":{"num_deleted":"0","num_feature":"38","num_nodes":"57","size_leaf_vector":"1"}},{"base_weights":[-3.3193443E-4,5.2370894E-1,-3.5113165E-1,1.2678364E-1,1.337582E0,-4.657687E-1,3.1398044E-3,4.3876496E-1,-5.576513E-1,4.083488E-1,1.6765018E0,-2.1392566E-1,-5.160371E-1,-2.9001632E-1,4.99557E-1,1.8195841E0,1.2116895E-1,-5.7665795E-1,4.6552874E-2,-4.0150607E-1,7.257797E-1,3.9703315E-1,1.8140448E0,-4.5998478E-1,1.5233043E-1,-3.6334732E-1,-5.682066E-1,3.894052E-1,-4.0454525E-1,8.857252E-1,-3.408856E-1,2.0993848E0,-5.4060515E-2,1.0975602E0,-2.171882E-1,-5.8633503E-2,-1.8387736E-1,-5.4924797E-2,5.6525737E-2,3.7193576E-1,1.9865213E-1,-3.0803794E-1,1.5952992E0,1.918494E0,1.6454865E-1,6.234896E-2,-5.106267E-1,3.9748967E-1,-5.3805508E-2,-4.9282417E-1,1.2697406E-1,-5.7102823E-1,1.2960208E-2,-5.3188857E-2,1.4537148E0,-4.4970712E-1,5.148893E-1,1.5667212E0,3.0221504E-1,-5.632872E-2,4.5655963E-1,2.2320102E-1,-3.8158935E-2,8.184176E-2,-4.899182E-2,7.4455075E-2,1.9933577E-1,-3.661162E-2,1.0259116E-1,1.8348575E-2,-3.8426965E-2,1.0459924E-1,-5.6575116E-4,-5.073299E-2,1.5282378E-2,1.3589635E-2,2.0229283E-1,1.9519442E-1,-1.8885455E-3,-4.733446E-2,1.056849E-1,-5.6459475E-2,4.211593E-2,7.9467066E-2,-2.151148E-2,-5.525474E-2,1.8932415E-2,8.243387E-2,-5.4870334E-2,-5.8227826E-2,-3.2612797E-2,1.9836251E-1,-3.7287682E-2,-4.9568724E-2,9.353409E-3,-4.3022957E-2,1.6410582E-1,2.0169072E-1,2.5510622E-2,1.4215802E-1,-1.2055697E-2,1.04135714E-1,-3.8923863E-2],"categories":[],"categories_nodes":[],"categories_segments":[],"categories_sizes":[],"default_left":[0,0,0,0,0,0,0,0,0,0,0,0,0,0,0,0,0,0,0,0,0,0,0,0,0,0,0,0,0,0,0,0,0,0,0,0,0,0,0,0,0,0,0,0,0,0,0,0,0,0,0,0,0,0,0,0,0,0,0,0,0,0,0,0,0,0,0,0,0,0,0,0,0,0,0,0,0,0,0,0,0,0,0,0,0,0,0,0,0,0,0,0,0,0,0,0,0,0,0,0,0,0,0],"id":7,"left_children":[1,3,5,7,9,11,13,15,17,19,21,23,25,27,29,31,33,35,-1,37,39,41,43,45,47,49,51,53,55,57,59,61,63,65,67,-1,69,-1,-1,71,-1,73,75,77,79,-1,81,83,-1,85,87,89,-1,-1,91,93,95,97,99,-1,101,-1,-1,-1,-1,-1,-1,-1,-1,-1,-1,-1,-1,-1,-1,-1,-1,-1,-1,-1,-1,-1,-1,-1,-1,-1,-1,-1,-1,-1,-1,-1,-1,-1,-1,-1,-1,-1,-1,-1,-1,-1,-1],"loss_changes":[2.2248665E2,1.5660493E2,2.9444084E1,7.013611E1,4.9386017E1,6.8237686E0,2.6082205E1,9.862256E1,2.2700233E0,1.15542755E1,1.9724457E1,8.43737E0,3.4250336E0,8.926195E0,2.1897991E1,2.2171463E1,6.113008E1,2.7795792E-1,0E0,2.1645312E0,1.3461216E1,1.110016E1,1.7708801E1,3.3792076E0,6.6559024E0,7.609068E0,7.395477E-1,1.7212046E1,4.256133E0,1.7753857E1,4.100579E0,1.2905655E1,2.8506355E0,1.3567963E1,2.5871078E1,0E0,3.574124E-1,0E0,0E0,6.6452026E0,0E0,8.805792E-1,2.7290287E0,6.4069214E0,4.6689773E0,0E0,2.9453783E0,7.14494E0,0E0,3.9440727E0,1.252772E1,7.3812866E-1,0E0,0E0,8.528221E0,2.367323E0,6.0322204E0,1.1842804E1,1.2448191E1,0E0,3.016033E0,0E0,0E0,0E0,0E0,0E0,0E0,0E0,0E0,0E0,0E0,0E0,0E0,0E0,0E0,0E0,0E0,0E0,0E0,0E0,0E0,0E0,0E0,0E0,0E0,0E0,0E0,0E0,0E0,0E0,0E0,0E0,0E0,0E0,0E0,0E0,0E0,0E0,0E0,0E0,0E0,0E0,0E0],"parents":[2147483647,0,0,1,1,2,2,3,3,4,4,5,5,6,6,7,7,8,8,9,9,10,10,11,11,12,12,13,13,14,14,15,15,16,16,17,17,19,19,20,20,21,21,22,22,23,23,24,24,25,25,26,26,27,27,28,28,29,29,30,30,31,31,32,32,33,33,34,34,36,36,39,39,41,41,42,42,43,43,44,44,46,46,47,47,49,49,50,50,51,51,54,54,55,55,56,56,57,57,58,58,60,60],"right_children":[2,4,6,8,10,12,14,16,18,20,22,24,26,28,30,32,34,36,-1,38,40,42,44,46,48,50,52,54,56,58,60,62,64,66,68,-1,70,-1,-1,72,-1,74,76,78,80,-1,82,84,-1,86,88,90,-1,-1,92,94,96,98,100,-1,102,-1,-1,-1,-1,-1,-1,-1,-1,-1,-1,-1,-1,-1,-1,-1,-1,-1,-1,-1,-1,-1,-1,-1,-1,-1,-1,-1,-1,-1,-1,-1,-1,-1,-1,-1,-1,-1,-1,-1,-1,-1,-1],"split_conditions":[9.3020576E-1,8.5651624E-1,4.5406818E-1,3.0636664E-2,5.830392E-2,9.494154E-1,1.13652624E-1,9.0424716E-1,3.0198446E-1,1.03282906E-1,1.4782912E-1,3.8693365E-2,5.902475E-3,3.5071336E-3,5.6953436E-1,5.8860034E-1,1.3132923E-2,3.8095564E-1,4.6552874E-2,3.6816627E-3,5.0451124E-1,3.7326285E-1,3.5380315E-2,6.302421E-5,7.055656E-2,1.4540128E-1,7.775241E-2,1.2958865E-3,3.5175793E-2,9.9776936E-1,1.01009406E-1,2.9329765E-1,3.0214558E-3,1.606648E-2,1.8364757E-2,-5.8633503E-2,7.2182335E-2,-5.4924797E-2,5.6525737E-2,8.7687397E-1,1.9865213E-1,1.37666855E-2,1.544578E-2,3.8101688E-2,1.5347936E-3,6.234896E-2,2.2725359E-2,1.9569436E-1,-5.3805508E-2,3.619959E-2,9.142577E-1,4.331079E-1,1.2960208E-2,-5.3188857E-2,3.600367E-2,7.0283633E-1,4.7130007E-1,3.0838361E-2,4.2315773E-3,-5.632872E-2,1.790507E-2,2.2320102E-1,-3.8158935E-2,8.184176E-2,-4.899182E-2,7.4455075E-2,1.9933577E-1,-3.661162E-2,1.0259116E-1,1.8348575E-2,-3.8426965E-2,1.0459924E-1,-5.6575116E-4,-5.073299E-2,1.5282378E-2,1.3589635E-2,2.0229283E-1,1.9519442E-1,-1.8885455E-3,-4.733446E-2,1.056849E-1,-5.6459475E-2,4.211593E-2,7.9467066E-2,-2.151148E-2,-5.525474E-2,1.8932415E-2,8.243387E-2,-5.4870334E-2,-5.8227826E-2,-3.2612797E-2,1.9836251E-1,-3.7287682E-2,-4.9568724E-2,9.353409E-3,-4.3022957E-2,1.6410582E-1,2.0169072E-1,2.5510622E-2,1.4215802E-1,-1.2055697E-2,1.04135714E-1,-3.8923863E-2],"split_indices":[29,4,20,27,8,29,23,8,25,23,26,11,3,3,22,31,3,3,0,6,20,35,27,1,3,19,6,1,6,4,18,15,6,6,6,0,25,0,0,29,0,14,0,36,6,0,6,11,0,13,31,20,0,0,11,20,22,36,27,0,3,0,0,0,0,0,0,0,0,0,0,0,0,0,0,0,0,0,0,0,0,0,0,0,0,0,0,0,0,0,0,0,0,0,0,0,0,0,0,0,0,0,0],"split_type":[0,0,0,0,0,0,0,0,0,0,0,0,0,0,0,0,0,0,0,0,0,0,0,0,0,0,0,0,0,0,0,0,0,0,0,0,0,0,0,0,0,0,0,0,0,0,0,0,0,0,0,0,0,0,0,0,0,0,0,0,0,0,0,0,0,0,0,0,0,0,0,0,0,0,0,0,0,0,0,0,0,0,0,0,0,0,0,0,0,0,0,0,0,0,0,0,0,0,0,0,0,0,0],"sum_hessian":[1.208262E3,4.842997E2,7.239623E2,3.2631293E2,1.5798682E2,5.4673285E2,1.7722943E2,2.2438979E2,1.01923134E2,4.281197E1,1.1517484E2,9.1845535E1,4.5488733E2,1.1168834E2,6.554109E1,4.1075535E1,1.8331425E2,1.00492775E2,1.4303563E0,1.1980783E1,3.0831186E1,1.1556768E1,1.0361807E2,5.4784294E1,3.7061237E1,1.1787001E2,3.370173E2,1.5765049E1,9.5923294E1,4.4870174E1,2.0670916E1,3.5633698E1,5.4418373E0,4.65994E1,1.3671484E2,9.7595505E1,2.897271E0,1.0767197E1,1.2135863E0,2.5085594E1,5.7455926E0,7.743406E0,3.8133626E0,9.729414E1,6.3239274E0,1.9411868E0,5.284311E1,2.7662428E1,9.398811E0,9.3242744E1,2.4627272E1,3.35841E2,1.1762981E0,8.718415E0,7.0466337E0,9.191918E1,4.0041075E0,1.9927929E1,2.4942244E1,1.6392736E1,4.278178E0,3.3920746E1,1.7129501E0,1.5204864E0,3.921351E0,3.4740337E1,1.1859061E1,1.2271822E2,1.3996622E1,1.0523851E0,1.8448858E0,8.371372E0,1.6714222E1,5.3353806E0,2.4080253E0,1.1627942E0,2.6505685E0,9.5635414E1,1.6587285E0,3.9614584E0,2.3624687E0,5.0322548E1,2.5205586E0,1.6601606E1,1.1060822E1,8.591107E1,7.3316708E0,1.201087E1,1.2616402E1,3.197739E2,1.606712E1,5.3954077E0,1.6512259E0,8.482694E1,7.092241E0,2.5130455E0,1.4910619E0,1.4435501E1,5.4924283E0,6.1901593E0,1.8752085E1,2.3926513E0,1.8855271E0],"tree_param":{"num_deleted":"0","num_feature":"38","num_nodes":"103","size_leaf_vector":"1"}},{"base_weights":[5.830371E-3,-1.751878E-1,1.043659E0,5.6135092E-2,-4.8670688E-1,-4.6206465E-1,1.3941541E0,-3.0303463E-1,6.5131897E-1,-5.148677E-1,8.309794E-1,-5.751724E-2,2.840169E-1,1.58226E0,1.9145294E-1,4.4406198E-2,-5.2401507E-1,3.3923325E-1,1.2640008E0,-5.424572E-1,-5.1324293E-3,-3.0242386E-1,1.8693535E0,7.98187E-1,-3.9271347E-2,1.0301199E0,2.0499282E0,-2.7323505E-1,1.702534E0,-2.818092E-1,3.9791963E-1,-5.7371193E-1,-2.7756038E-1,5.8765405E-1,-4.415877E-1,1.1055859E-1,1.4613801E0,-2.7385324E-1,-5.694862E-1,-3.9970574E-1,1.3172818E0,-4.5954E-2,1.6439844E-2,5.9711613E-2,2.0946749E-1,1.45613E-1,-3.0394403E-2,4.853543E-1,1.7105511E0,9.168482E-1,2.1450164E0,-5.5779573E-2,3.3897173E-1,5.4903783E-2,1.9363716E-1,4.0021498E-2,-3.6469173E-2,8.372153E-2,-1.0502136E-2,-5.835901E-2,-3.7256382E-2,-4.232981E-2,3.414024E-2,4.6386883E-2,2.0590912E-1,-5.7634134E-2,5.1627822E-2,-3.463475E-2,1.6175155E-1,1.5913816E-1,-2.9507218E-2,-4.08171E-2,1.3140293E-2,3.9464876E-2,-5.7484794E-2,-4.96364E-2,2.1898214E-2,1.7353146E-1,6.2041897E-3,1.4465997E-1,2.0520074E-2,9.0923E-3,1.7901139E-1,-1.384669E-3,1.7907956E-1,6.82073E-2,2.1778814E-1,-4.3869466E-2,1.14919744E-1],"categories":[],"categories_nodes":[],"categories_segments":[],"categories_sizes":[],"default_left":[0,0,0,0,0,0,0,0,0,0,0,0,0,0,0,0,0,0,0,0,0,0,0,0,0,0,0,0,0,0,0,0,0,0,0,0,0,0,0,0,0,0,0,0,0,0,0,0,0,0,0,0,0,0,0,0,0,0,0,0,0,0,0,0,0,0,0,0,0,0,0,0,0,0,0,0,0,0,0,0,0,0,0,0,0,0,0,0,0],"id":8,"left_children":[1,3,5,7,9,11,13,15,17,19,21,-1,23,25,27,29,31,33,35,37,39,41,43,45,-1,47,49,51,53,55,57,59,61,63,65,67,69,71,73,75,77,-1,-1,-1,-1,-1,-1,79,81,83,85,-1,87,-1,-1,-1,-1,-1,-1,-1,-1,-1,-1,-1,-1,-1,-1,-1,-1,-1,-1,-1,-1,-1,-1,-1,-1,-1,-1,-1,-1,-1,-1,-1,-1,-1,-1,-1,-1],"loss_changes":[2.2511494E2,7.355451E1,9.4563446E1,1.2556093E2,1.6565895E1,3.0624328E0,3.2412445E1,2.8155663E1,4.183261E1,5.9941177E0,1.1725376E1,0E0,2.1200361E0,3.0142914E1,1.499739E1,1.6645737E1,2.584858E0,2.8928467E1,1.6736336E1,2.7808762E0,1.2477896E1,4.7121528E-1,2.0777893E-1,2.8211243E0,0E0,2.1148178E1,5.211029E0,3.0966384E0,2.8708076E-1,4.393974E0,1.5381494E1,1.5118027E-1,3.710712E0,1.9545895E1,4.9758115E0,8.772472E0,1.4922546E1,2.1716425E0,2.1220016E0,1.2095284E0,2.7764692E0,0E0,0E0,0E0,0E0,0E0,0E0,8.946832E0,3.1834564E0,5.6406546E0,1.4336853E0,0E0,4.23302E0,0E0,0E0,0E0,0E0,0E0,0E0,0E0,0E0,0E0,0E0,0E0,0E0,0E0,0E0,0E0,0E0,0E0,0E0,0E0,0E0,0E0,0E0,0E0,0E0,0E0,0E0,0E0,0E0,0E0,0E0,0E0,0E0,0E0,0E0,0E0,0E0],"parents":[2147483647,0,0,1,1,2,2,3,3,4,4,5,5,6,6,7,7,8,8,9,9,10,10,12,12,13,13,14,14,15,15,16,16,17,17,18,18,19,19,20,20,21,21,22,22,23,23,25,25,26,26,27,27,28,28,29,29,30,30,31,31,32,32,33,33,34,34,35,35,36,36,37,37,38,38,39,39,40,40,47,47,48,48,49,49,50,50,52,52],"right_children":[2,4,6,8,10,12,14,16,18,20,22,-1,24,26,28,30,32,34,36,38,40,42,44,46,-1,48,50,52,54,56,58,60,62,64,66,68,70,72,74,76,78,-1,-1,-1,-1,-1,-1,80,82,84,86,-1,88,-1,-1,-1,-1,-1,-1,-1,-1,-1,-1,-1,-1,-1,-1,-1,-1,-1,-1,-1,-1,-1,-1,-1,-1,-1,-1,-1,-1,-1,-1,-1,-1,-1,-1,-1,-1],"split_conditions":[8.042215E-1,8.941953E-1,2.8949198E-3,2.429616E-2,6.1639078E-2,2.9838407E-2,1.5625075E-2,1.7697655E-2,6.2283635E-1,7.552284E-1,6.583156E-1,-5.751724E-2,3.7958093E-2,8.986129E-2,9.434783E-1,6.2695234E-3,3.1307187E-2,2.1237712E-2,2.8464056E-3,4.1290167E-1,1.44395E-1,9.7638166E-1,2.509924E-1,2.0303024E-1,-3.9271347E-2,9.993279E-1,8.423149E-3,4.9942404E-1,4.7425717E-2,5.135256E-1,2.9717857E-1,1.8438453E-2,6.33657E-2,3.5694966E-1,7.654567E-1,3.3821332E-1,5.3262543E-2,9.997205E-1,7.288693E-5,1.3215111E-1,5.284761E-3,-4.5954E-2,1.6439844E-2,5.9711613E-2,2.0946749E-1,1.45613E-1,-3.0394403E-2,2.2291487E-1,1.3225769E-2,1.7852387E-1,7.599359E-3,-5.5779573E-2,3.128602E-2,5.4903783E-2,1.9363716E-1,4.0021498E-2,-3.6469173E-2,8.372153E-2,-1.0502136E-2,-5.835901E-2,-3.7256382E-2,-4.232981E-2,3.414024E-2,4.6386883E-2,2.0590912E-1,-5.7634134E-2,5.1627822E-2,-3.463475E-2,1.6175155E-1,1.5913816E-1,-2.9507218E-2,-4.08171E-2,1.3140293E-2,3.9464876E-2,-5.7484794E-2,-4.96364E-2,2.1898214E-2,1.7353146E-1,6.2041897E-3,1.4465997E-1,2.0520074E-2,9.0923E-3,1.7901139E-1,-1.384669E-3,1.7907956E-1,6.82073E-2,2.1778814E-1,-4.3869466E-2,1.14919744E-1],"split_indices":[21,32,17,17,7,18,6,27,21,21,21,0,18,18,29,17,2,27,16,25,19,29,24,2,0,8,2,0,7,32,35,17,18,18,1,18,13,4,11,19,27,0,0,0,0,0,0,22,18,26,27,0,7,0,0,0,0,0,0,0,0,0,0,0,0,0,0,0,0,0,0,0,0,0,0,0,0,0,0,0,0,0,0,0,0,0,0,0,0],"split_type":[0,0,0,0,0,0,0,0,0,0,0,0,0,0,0,0,0,0,0,0,0,0,0,0,0,0,0,0,0,0,0,0,0,0,0,0,0,0,0,0,0,0,0,0,0,0,0,0,0,0,0,0,0,0,0,0,0,0,0,0,0,0,0,0,0,0,0,0,0,0,0,0,0,0,0,0,0,0,0,0,0,0,0,0,0,0,0,0,0],"sum_hessian":[1.1963016E3,1.01933954E3,1.769621E2,5.854357E2,4.3390378E2,3.3354244E1,1.4360785E2,3.6541388E2,2.2002185E2,4.2542117E2,8.482599E0,2.9162252E1,4.191993E0,1.23912056E2,1.9695797E1,1.423696E2,2.230443E2,1.4679938E2,7.322247E1,4.035166E2,2.1904589E1,4.3945856E0,4.0880136E0,2.280117E0,1.9118761E0,5.8292828E1,6.561923E1,1.5689986E1,4.00581E0,7.414908E1,6.822051E1,1.8451047E2,3.853383E1,1.1155513E2,3.524425E1,1.0927086E1,6.2295387E1,3.7910294E1,3.656063E2,1.7408192E1,4.496397E0,3.2996411E0,1.0949446E0,1.1642641E0,2.9237494E0,1.2266464E0,1.0534705E0,3.33253E1,2.4967531E1,5.9043612E0,5.971487E1,1.0771943E1,4.9180436E0,1.2394886E0,2.766321E0,7.6196637E0,6.652942E1,3.6059536E1,3.2160973E1,1.7406125E2,1.044922E1,3.1445868E1,7.087961E0,1.0411192E2,7.4432073E0,3.1246733E1,3.9975185E0,8.975807E0,1.951278E0,5.8089916E1,4.2054696E0,2.8467768E1,9.442526E0,1.6204178E0,3.6398587E2,1.522698E1,2.1812127E0,3.0861573E0,1.4102395E0,6.5810876E0,2.674421E1,1.2694097E0,2.3698122E1,3.335953E0,2.568408E0,1.7899791E0,5.792489E1,2.743421E0,2.1746225E0],"tree_param":{"num_deleted":"0","num_feature":"38","num_nodes":"89","size_leaf_vector":"1"}},{"base_weights":[-1.1137134E-2,5.339836E-1,-2.4232347E-1,9.6893924E-1,-4.780439E-1,3.62381E-1,-3.568199E-1,6.9762963E-1,1.5965806E0,-5.677143E-1,8.054974E-1,2.4229722E-1,1.8333801E0,6.954836E-1,-3.9100718E-1,1.26897E-1,1.218774E0,1.8595583E0,-4.2818925E-1,-5.869326E-2,3.635517E-3,-3.9268788E-2,1.2877768E0,-1.7312391E-1,6.342736E-1,2.1292567E-1,-3.1117728E-2,-5.2077785E-2,1.3990794E0,-4.0163907E-1,1.4765409E-1,-7.798349E-2,1.1027893E0,-2.856807E-1,1.4106097E0,2.149361E0,1.0325102E0,-5.255465E-2,1.5867366E-2,6.1000045E-2,-4.0806234E-2,1.795273E-1,2.5913415E-2,1.6229841E-1,-2.5844562E-1,1.8793327E-1,1.2989715E0,-4.359695E-1,1.1460849E-1,1.6404806E0,-1.1991827E-3,-1.7100954E-1,-4.757947E-1,1.7923523E-2,-5.371354E-2,2.853607E-2,1.8961884E-1,1.17574334E-1,-5.435676E-2,7.457552E-2,1.7571579E-1,2.1796666E-1,5.504479E-2,-3.7269827E-2,1.6914444E-1,6.949889E-2,-4.0012278E-2,8.201691E-2,-3.8534887E-2,1.6407043E-1,-1.582533E-2,1.5643377E-2,-5.2981675E-2,2.118489E-1,4.8145987E-2,-3.7977945E-2,3.2024384E-2,-3.3817258E-2,-5.479435E-2],"categories":[],"categories_nodes":[],"categories_segments":[],"categories_sizes":[],"default_left":[0,0,0,0,0,0,0,0,0,0,0,0,0,0,0,0,0,0,0,0,0,0,0,0,0,0,0,0,0,0,0,0,0,0,0,0,0,0,0,0,0,0,0,0,0,0,0,0,0,0,0,0,0,0,0,0,0,0,0,0,0,0,0,0,0,0,0,0,0,0,0,0,0,0,0,0,0,0,0],"id":9,"left_children":[1,3,5,7,9,11,13,15,17,19,21,23,25,27,29,31,33,35,37,-1,39,-1,41,43,45,-1,-1,47,49,51,-1,53,55,57,59,61,63,-1,-1,-1,-1,-1,-1,-1,65,67,69,71,-1,73,-1,75,77,-1,-1,-1,-1,-1,-1,-1,-1,-1,-1,-1,-1,-1,-1,-1,-1,-1,-1,-1,-1,-1,-1,-1,-1,-1,-1],"loss_changes":[1.5152824E2,1.5808359E2,5.8583546E1,4.158867E1,1.2922766E1,2.338553E1,2.5827621E1,5.2450203E1,4.068257E1,1.1201553E0,4.831403E0,2.0606548E1,7.0263977E0,1.20189905E1,1.4266647E1,1.718722E1,2.7050491E1,1.3715836E1,6.2180936E-1,0E0,1.3241823E0,0E0,2.4430609E0,9.90469E0,1.9033949E1,0E0,0E0,6.0082445E0,4.017351E0,1.1643089E1,0E0,8.555283E0,9.12673E0,4.8878517E0,1.7596008E1,1.1410675E0,1.838627E1,0E0,0E0,0E0,0E0,0E0,0E0,0E0,8.376228E0,1.4829967E1,1.3174805E1,6.274096E-1,0E0,4.5362034E0,0E0,1.7388079E1,4.9598923E0,0E0,0E0,0E0,0E0,0E0,0E0,0E0,0E0,0E0,0E0,0E0,0E0,0E0,0E0,0E0,0E0,0E0,0E0,0E0,0E0,0E0,0E0,0E0,0E0,0E0,0E0],"parents":[2147483647,0,0,1,1,2,2,3,3,4,4,5,5,6,6,7,7,8,8,9,9,10,10,11,11,12,12,13,13,14,14,15,15,16,16,17,17,18,18,20,20,22,22,23,23,24,24,27,27,28,28,29,29,31,31,32,32,33,33,34,34,35,35,36,36,44,44,45,45,46,46,47,47,49,49,51,51,52,52],"right_children":[2,4,6,8,10,12,14,16,18,20,22,24,26,28,30,32,34,36,38,-1,40,-1,42,44,46,-1,-1,48,50,52,-1,54,56,58,60,62,64,-1,-1,-1,-1,-1,-1,-1,66,68,70,72,-1,74,-1,76,78,-1,-1,-1,-1,-1,-1,-1,-1,-1,-1,-1,-1,-1,-1,-1,-1,-1,-1,-1,-1,-1,-1,-1,-1,-1,-1],"split_conditions":[2.3240967E-1,2.3516819E-2,1.002616E-2,1.1305926E-1,2.1946678E-1,4.9420416E-1,6.4720577E-3,3.0995017E-1,1.9589181E-1,2.5989324E-1,2.5805715E-1,1.3872215E-1,2.2217304E-1,1.8040214E-1,2.9329765E-1,1.6224737E-3,1.8948305E-1,3.6359108E-3,2.2715719E-1,-5.869326E-2,4.131031E-2,-3.9268788E-2,1.04509665E-4,9.663156E-4,4.3995622E-1,2.1292567E-1,-3.1117728E-2,3.434714E-2,9.673166E-2,2.879111E-1,1.4765409E-1,1.8246725E-2,1.2159231E-2,6.850238E-2,9.996814E-1,4.5651516E-1,1.5221679E-3,-5.255465E-2,1.5867366E-2,6.1000045E-2,-4.0806234E-2,1.795273E-1,2.5913415E-2,1.6229841E-1,4.5844857E-3,1.8260082E-2,5.290829E-2,2.3740709E-2,1.1460849E-1,3.4233943E-1,-1.1991827E-3,3.485016E-3,1.5729406E-1,1.7923523E-2,-5.371354E-2,2.853607E-2,1.8961884E-1,1.17574334E-1,-5.435676E-2,7.457552E-2,1.7571579E-1,2.1796666E-1,5.504479E-2,-3.7269827E-2,1.6914444E-1,6.949889E-2,-4.0012278E-2,8.201691E-2,-3.8534887E-2,1.6407043E-1,-1.582533E-2,1.5643377E-2,-5.2981675E-2,2.118489E-1,4.8145987E-2,-3.7977945E-2,3.2024384E-2,-3.3817258E-2,-5.479435E-2],"split_indices":[37,27,0,2,3,37,23,10,34,11,1,34,23,2,15,15,20,17,37,0,19,0,16,23,10,0,0,16,34,37,0,27,3,23,4,22,11,0,0,0,0,0,0,0,8,11,17,34,0,37,0,15,0,0,0,0,0,0,0,0,0,0,0,0,0,0,0,0,0,0,0,0,0,0,0,0,0,0,0],"split_type":[0,0,0,0,0,0,0,0,0,0,0,0,0,0,0,0,0,0,0,0,0,0,0,0,0,0,0,0,0,0,0,0,0,0,0,0,0,0,0,0,0,0,0,0,0,0,0,0,0,0,0,0,0,0,0,0,0,0,0,0,0,0,0,0,0,0,0,0,0,0,0,0,0,0,0,0,0,0,0],"sum_hessian":[1.200345E3,3.5707593E2,8.4326904E2,2.4977052E2,1.073054E2,1.3390335E2,7.093657E2,1.7586229E2,7.3908226E1,1.00819664E2,6.485735E0,1.2487408E2,9.029276E0,2.1712091E1,6.876536E2,8.4531204E1,9.1331085E1,6.548466E1,8.423571E0,9.751239E1,3.307274E0,1.9146659E0,4.571069E0,6.089509E1,6.3978992E1,7.9408417E0,1.088434E0,1.0976105E1,1.0735987E1,6.8454144E2,3.1121335E0,7.0624306E1,1.39068985E1,1.0273435E1,8.105765E1,4.730861E1,1.8176052E1,7.314601E0,1.1089694E0,1.1426555E0,2.1646185E0,2.5618563E0,2.0092127E0,1.944272E0,5.8950813E1,3.904396E1,2.493503E1,8.794484E0,2.1816204E0,9.028793E0,1.7071931E0,1.6735645E2,5.17185E2,4.565682E1,2.496749E1,7.5194135E0,6.3874846E0,1.0071056E0,9.266329E0,2.8853668E1,5.2203983E1,4.607214E1,1.2364658E0,5.940994E0,1.2235058E1,7.121348E0,5.1829468E1,1.8362495E1,2.0681465E1,2.0096342E1,4.838688E0,1.1114774E0,7.683007E0,5.806305E0,3.2224889E0,1.1760451E2,4.975194E1,1.7983705E2,3.3734796E2],"tree_param":{"num_deleted":"0","num_feature":"38","num_nodes":"79","size_leaf_vector":"1"}},{"base_weights":[1.0038535E-2,-5.546092E-1,1.0268729E0,-5.82323E-1,-1.5140525E-1,1.4744656E0,-4.767459E-1,-3.2439628E-1,-5.877572E-1,-5.7936635E-2,1.8996774E0,1.9233239E0,6.9089586E-1,-5.1633716E-1,1.500427E-1,-5.5475887E-2,1.4291888E-1,-5.919663E-2,-4.6129382E-1,2.1290635E-1,1.5442751E-2,1.9496622E0,-1.507738E-1,1.2917035E0,-3.6296645E-1,-3.1729096E-1,-5.616605E-1,7.20304E-2,-5.6975722E-2,1.9877231E0,5.191767E-1,1.5179047E-2,-3.542981E-2,2.0116413E0,6.759457E-1,-4.6460465E-1,8.3245957E-1,-5.5970997E-2,1.0537553E0,1.5748626E-2,-5.7415205E-1,9.073848E-2,2.0434868E-1,-4.736439E-2,1.6507885E-1,2.0993643E-1,-3.217937E-2,2.1176169E-2,1.4898273E-1,8.369412E-2,-5.334946E-2,-3.304146E-2,1.4657617E-1,1.8062924E-1,-3.0620351E-2,-1.5664434E-2,-5.869868E-2],"categories":[],"categories_nodes":[],"categories_segments":[],"categories_sizes":[],"default_left":[0,0,0,0,0,0,0,0,0,0,0,0,0,0,0,0,0,0,0,0,0,0,0,0,0,0,0,0,0,0,0,0,0,0,0,0,0,0,0,0,0,0,0,0,0,0,0,0,0,0,0,0,0,0,0,0,0],"id":10,"left_children":[1,3,5,7,9,11,13,15,17,-1,19,21,23,25,-1,-1,-1,-1,27,-1,-1,29,31,33,35,37,39,-1,-1,41,43,-1,-1,45,47,49,51,-1,53,-1,55,-1,-1,-1,-1,-1,-1,-1,-1,-1,-1,-1,-1,-1,-1,-1,-1],"loss_changes":[6.829668E2,8.458298E0,2.8652927E2,8.118744E-1,4.5463966E1,1.138642E2,8.460012E0,7.656552E0,9.918213E-2,0E0,3.257637E0,1.1638977E1,7.698461E1,6.968231E-1,0E0,0E0,0E0,0E0,3.8778014E0,0E0,0E0,1.0137024E1,2.7129835E-1,3.2857483E1,5.8129425E0,7.3329105E0,7.8848076E-1,0E0,0E0,1.0162781E1,8.275883E0,0E0,0E0,7.855667E0,1.5970825E1,4.1945953E0,3.325335E0,0E0,4.027742E0,0E0,3.184986E-1,0E0,0E0,0E0,0E0,0E0,0E0,0E0,0E0,0E0,0E0,0E0,0E0,0E0,0E0,0E0,0E0],"parents":[2147483647,0,0,1,1,2,2,3,3,4,4,5,5,6,6,7,7,8,8,10,10,11,11,12,12,13,13,18,18,21,21,22,22,23,23,24,24,25,25,26,26,29,29,30,30,33,33,34,34,35,35,36,36,38,38,40,40],"right_children":[2,4,6,8,10,12,14,16,18,-1,20,22,24,26,-1,-1,-1,-1,28,-1,-1,30,32,34,36,38,40,-1,-1,42,44,-1,-1,46,48,50,52,-1,54,-1,56,-1,-1,-1,-1,-1,-1,-1,-1,-1,-1,-1,-1,-1,-1,-1,-1],"split_conditions":[4.584202E-1,4.181047E-1,5.412219E-1,5.322517E-2,1.1199642E-1,3.419368E-1,8.2136464E-1,1.1808401E-1,8.57115E-1,-5.7936635E-2,1.3236983E-1,6.9666855E-2,3.4790493E-3,1.8466084E-4,1.500427E-1,-5.5475887E-2,1.4291888E-1,-5.919663E-2,1.0213368E-2,2.1290635E-1,1.5442751E-2,7.106726E-2,4.2494822E-1,3.7736244E-2,2.0849471E-1,1.43486615E-2,2.7259916E-1,7.20304E-2,-5.6975722E-2,3.1280953E-2,4.3043345E-2,1.5179047E-2,-3.542981E-2,6.1402833E-1,9.941867E-1,1.2995074E-2,2.3645992E-4,-5.5970997E-2,3.1483102E-1,1.5748626E-2,1.3697903E-1,9.073848E-2,2.0434868E-1,-4.736439E-2,1.6507885E-1,2.0993643E-1,-3.217937E-2,2.1176169E-2,1.4898273E-1,8.369412E-2,-5.334946E-2,-3.304146E-2,1.4657617E-1,1.8062924E-1,-3.0620351E-2,-1.5664434E-2,-5.869868E-2],"split_indices":[35,35,4,26,3,20,22,3,22,0,9,26,27,36,0,0,0,0,27,0,0,14,21,3,3,3,22,0,0,18,10,0,0,20,8,26,6,0,8,0,20,0,0,0,0,0,0,0,0,0,0,0,0,0,0,0,0],"split_type":[0,0,0,0,0,0,0,0,0,0,0,0,0,0,0,0,0,0,0,0,0,0,0,0,0,0,0,0,0,0,0,0,0,0,0,0,0,0,0,0,0,0,0,0,0,0,0,0,0,0,0,0,0,0,0,0,0],"sum_hessian":[1.1875282E3,7.638289E2,4.236993E2,7.142887E2,4.9540195E1,3.2652094E2,9.717839E1,1.5991017E1,6.9829767E2,4.1581657E1,7.9585366E0,2.066751E2,1.19845825E2,9.599502E1,1.1833715E0,1.4738512E1,1.2525053E0,6.7224243E2,2.6055239E1,6.839651E0,1.1188853E0,2.0414275E2,2.5323505E0,7.618629E1,4.3659542E1,1.9288116E1,7.67069E1,1.7163526E0,2.4338886E1,1.9847244E2,5.6702995E0,1.1206115E0,1.411739E0,3.407694E1,4.2109352E1,4.080181E1,2.8577273E0,1.6892979E1,2.3951364E0,1.1114695E0,7.5595436E1,1.0589461E1,1.8788298E2,3.3300874E0,2.3402123E0,3.2938946E1,1.1379919E0,2.7618042E1,1.4491309E1,1.4906079E0,3.9311207E1,1.1762166E0,1.6815107E0,1.3306314E0,1.0645051E0,2.6484141E0,7.294702E1],"tree_param":{"num_deleted":"0","num_feature":"38","num_nodes":"57","size_leaf_vector":"1"}},{"base_weights":[-7.140856E-3,-4.9888656E-1,7.1722287E-1,-5.541212E-1,-7.578952E-2,1.1798509E0,2.6028928E-1,-5.6929797E-1,6.2410142E-2,1.0477163E0,-3.5111424E-1,1.5945467E0,-2.574785E-1,-4.2888254E-1,6.4478326E-1,-4.344779E-1,-5.8977034E-2,1.1345614E0,-3.1167883E-1,-2.0047024E-1,1.6844177E0,3.7136403E-1,-4.9654832E-1,1.9954218E0,6.8503356E-1,-4.3167314E-1,5.938387E-1,-5.4977244E-1,-1.811427E-1,-2.9181308E-1,1.1792704E0,3.5116616E-1,-4.6550426E-1,-3.0674336E-2,1.6968404E-1,3.5056454E-1,-5.345984E-2,-4.8463263E-2,5.851826E-2,1.8571899E0,1.26198605E-2,-3.9830324E-1,1.5317788E0,-3.9486993E-2,-5.6232E-1,-4.723791E-2,2.0710967E0,-3.0155018E-1,1.5952435E0,-5.589027E-1,9.250334E-1,-4.8889324E-2,1.6670058E0,-3.8041216E-3,-5.6595415E-2,-4.3312123E-1,4.5258498E-1,-4.1926727E-1,1.4585671E-1,1.3588241E0,-3.7016693E-1,-3.7422262E-2,1.0918855E-1,-5.680264E-2,-1.989486E-2,-3.6900923E-2,1.0622076E-1,4.4088185E-2,2.0533362E-1,-5.1215928E-2,1.6015416E-2,1.8183583E-1,6.689266E-2,-5.088746E-2,1.39008E-1,-5.8153063E-2,-2.5978649E-2,7.9944715E-2,2.1498616E-1,-4.282292E-2,1.0120814E-1,-8.64928E-3,1.8585287E-1,-5.80824E-2,-2.344753E-2,1.650592E-1,-3.4856062E-2,1.8793362E-1,5.542289E-2,-5.187574E-2,6.0833544E-2,9.2570215E-2,-4.4493932E-2,-4.8738327E-2,7.1744405E-2,1.03946045E-1,2.2212353E-1,-5.4222323E-2,6.003973E-2],"categories":[],"categories_nodes":[],"categories_segments":[],"categories_sizes":[],"default_left":[0,0,0,0,0,0,0,0,0,0,0,0,0,0,0,0,0,0,0,0,0,0,0,0,0,0,0,0,0,0,0,0,0,0,0,0,0,0,0,0,0,0,0,0,0,0,0,0,0,0,0,0,0,0,0,0,0,0,0,0,0,0,0,0,0,0,0,0,0,0,0,0,0,0,0,0,0,0,0,0,0,0,0,0,0,0,0,0,0,0,0,0,0,0,0,0,0,0,0],"id":11,"left_children":[1,3,5,7,9,11,13,15,17,19,21,23,25,27,29,31,-1,33,35,37,39,41,43,45,47,49,51,53,55,57,59,61,63,-1,-1,65,-1,-1,-1,67,-1,69,71,73,75,-1,77,79,81,83,85,-1,87,-1,-1,89,91,93,-1,95,97,-1,-1,-1,-1,-1,-1,-1,-1,-1,-1,-1,-1,-1,-1,-1,-1,-1,-1,-1,-1,-1,-1,-1,-1,-1,-1,-1,-1,-1,-1,-1,-1,-1,-1,-1,-1,-1,-1],"loss_changes":[4.2425177E2,1.6536942E1,1.0150116E2,5.9055786E0,2.6066294E1,1.4288669E2,6.482113E1,1.43396E0,6.760137E0,1.3532312E1,7.2742167E0,6.632068E1,8.321182E0,2.530859E0,7.881332E1,2.2238817E0,0E0,4.0435143E0,2.0513484E0,1.7351801E0,2.7541656E0,1.1219444E1,1.6791782E0,2.4944366E1,5.284913E1,8.409769E0,1.2037851E1,4.6318054E-1,5.0336614E0,1.3495987E1,2.8322876E1,2.44034E0,2.1209373E0,0E0,0E0,2.329513E0,0E0,0E0,0E0,1.8505249E0,0E0,5.86591E-1,6.0138702E-3,6.206575E0,1.3603878E-1,0E0,1.0771362E1,5.230192E0,1.366156E1,1.6555405E-1,4.5460596E0,0E0,1.5811443E-1,0E0,0E0,2.2943583E0,4.2793193E0,4.578063E0,0E0,2.2431381E1,2.1909258E0,0E0,0E0,0E0,0E0,0E0,0E0,0E0,0E0,0E0,0E0,0E0,0E0,0E0,0E0,0E0,0E0,0E0,0E0,0E0,0E0,0E0,0E0,0E0,0E0,0E0,0E0,0E0,0E0,0E0,0E0,0E0,0E0,0E0,0E0,0E0,0E0,0E0,0E0],"parents":[2147483647,0,0,1,1,2,2,3,3,4,4,5,5,6,6,7,7,8,8,9,9,10,10,11,11,12,12,13,13,14,14,15,15,17,17,18,18,19,19,20,20,21,21,22,22,23,23,24,24,25,25,26,26,27,27,28,28,29,29,30,30,31,31,32,32,35,35,39,39,41,41,42,42,43,43,44,44,46,46,47,47,48,48,49,49,50,50,52,52,55,55,56,56,57,57,59,59,60,60],"right_children":[2,4,6,8,10,12,14,16,18,20,22,24,26,28,30,32,-1,34,36,38,40,42,44,46,48,50,52,54,56,58,60,62,64,-1,-1,66,-1,-1,-1,68,-1,70,72,74,76,-1,78,80,82,84,86,-1,88,-1,-1,90,92,94,-1,96,98,-1,-1,-1,-1,-1,-1,-1,-1,-1,-1,-1,-1,-1,-1,-1,-1,-1,-1,-1,-1,-1,-1,-1,-1,-1,-1,-1,-1,-1,-1,-1,-1,-1,-1,-1,-1,-1,-1],"split_conditions":[9.6703285E-1,6.6766614E-1,3.4962276E-1,8.747346E-1,8.558534E-2,4.3525603E-1,3.6424197E-2,7.733881E-2,5.228971E-1,6.7570394E-1,1.8948305E-1,2.8337514E-1,6.241755E-1,3.1375766E-2,2.0360836E-1,3.1577817E-3,-5.8977034E-2,5.5385802E-2,4.4629432E-2,4.198476E-1,7.039033E-1,9.508024E-1,1.1589833E-3,6.042789E-1,6.759804E-2,6.510939E-2,6.042789E-1,3.6394042E-1,4.1183908E-2,9.878357E-1,4.9801013E-1,4.7422487E-2,5.497813E-2,-3.0674336E-2,1.6968404E-1,2.6714328E-1,-5.345984E-2,-4.8463263E-2,5.851826E-2,9.67551E-2,1.26198605E-2,7.963493E-3,2.0420861E-1,1.1069426E-1,9.604605E-1,-4.723791E-2,4.5099915E-3,9.847288E-1,7.298186E-2,3.820881E-2,1.3030948E-1,-4.8889324E-2,3.7326285E-1,-3.8041216E-3,-5.6595415E-2,4.8908633E-1,7.881295E-2,1.2200888E-1,1.4585671E-1,6.842828E-2,2.7527314E-2,-3.7422262E-2,1.0918855E-1,-5.680264E-2,-1.989486E-2,-3.6900923E-2,1.0622076E-1,4.4088185E-2,2.0533362E-1,-5.1215928E-2,1.6015416E-2,1.8183583E-1,6.689266E-2,-5.088746E-2,1.39008E-1,-5.8153063E-2,-2.5978649E-2,7.9944715E-2,2.1498616E-1,-4.282292E-2,1.0120814E-1,-8.64928E-3,1.8585287E-1,-5.80824E-2,-2.344753E-2,1.650592E-1,-3.4856062E-2,1.8793362E-1,5.542289E-2,-5.187574E-2,6.0833544E-2,9.2570215E-2,-4.4493932E-2,-4.8738327E-2,7.1744405E-2,1.03946045E-1,2.2212353E-1,-5.4222323E-2,6.003973E-2],"split_indices":[29,10,1,31,26,20,3,26,35,22,20,10,22,5,0,0,0,9,10,23,31,29,12,31,26,12,31,1,2,29,37,17,12,0,0,0,0,0,0,9,0,0,23,24,29,0,27,10,23,2,10,0,35,0,0,20,5,9,0,12,15,0,0,0,0,0,0,0,0,0,0,0,0,0,0,0,0,0,0,0,0,0,0,0,0,0,0,0,0,0,0,0,0,0,0,0,0,0,0],"split_type":[0,0,0,0,0,0,0,0,0,0,0,0,0,0,0,0,0,0,0,0,0,0,0,0,0,0,0,0,0,0,0,0,0,0,0,0,0,0,0,0,0,0,0,0,0,0,0,0,0,0,0,0,0,0,0,0,0,0,0,0,0,0,0,0,0,0,0,0,0,0,0,0,0,0,0,0,0,0,0,0,0,0,0,0,0,0,0,0,0,0,0,0,0,0,0,0,0,0,0],"sum_hessian":[1.1890358E3,7.08423E2,4.806128E2,6.26345E2,8.2077995E1,2.380321E2,2.4258067E2,6.1137177E2,1.4973169E1,1.5602826E1,6.647517E1,1.8464832E2,5.3383785E1,8.683002E1,1.5575066E2,8.352736E1,5.278444E2,3.347179E0,1.1625991E1,5.501958E0,1.0100868E1,1.08787775E1,5.559639E1,1.2733185E2,5.7316467E1,4.472516E1,8.658628E0,5.753529E1,2.9294727E1,5.6753677E1,9.899698E1,2.7813067E0,8.0746056E1,1.0668799E0,2.280299E0,2.7836864E0,8.842304E0,4.3219137E0,1.1800442E0,8.919973E0,1.1808956E0,6.9354596E0,3.943318E0,7.195271E0,4.840112E1,3.6324778E0,1.2369937E2,2.7825207E1,2.949126E1,4.1428143E1,3.297014E0,4.581118E0,4.07751E0,1.8662905E0,5.5669E1,2.118703E1,8.107695E0,5.3610493E1,3.1431851E0,8.882651E1,1.0170478E1,1.6551743E0,1.1261325E0,5.7499653E1,2.3246403E1,1.623531E0,1.1601555E0,1.4801335E0,7.4398394E0,5.8298054E0,1.105654E0,2.1288736E0,1.8144443E0,5.9015703E0,1.2937006E0,4.4644054E1,3.757064E0,7.8652706E0,1.1583411E2,2.5992638E1,1.8325679E0,4.08294E0,2.5408321E1,3.8065765E1,3.3623772E0,1.9118398E0,1.385174E0,2.8456557E0,1.2318542E0,2.0041006E1,1.1460251E0,5.2885275E0,2.8191676E0,5.1118515E1,2.491979E0,6.64313E1,2.239521E1,9.01388E0,1.1565988E0],"tree_param":{"num_deleted":"0","num_feature":"38","num_nodes":"99","size_leaf_vector":"1"}},{"base_weights":[-5.7618855E-3,-3.2570416E-1,1.6214311E0,1.0196773E0,-4.0237898E-1,8.553403E-1,1.8037888E0,1.6948237E0,-2.5414458E-1,7.337459E-2,-4.4535267E-1,1.2332429E0,-1.2682626E-1,1.809537E-1,5.5772968E-2,1.7809044E0,-3.3106204E-2,1.449546E-1,-4.4838858E-1,-4.0542814E-1,9.2052037E-1,-1.3583851E-1,-4.790721E-1,1.4981983E0,-4.7174443E-2,-3.5170287E-1,1.0092782E-1,1.8455397E-1,7.958064E-3,-5.5381235E-2,3.8834974E-2,1.4101797E-1,-4.801986E-1,-2.405159E-1,1.2477498E0,1.1032976E0,-2.9986298E-1,-4.9991748E-1,-6.774934E-2,1.59519E0,2.5765408E-2,-5.3014822E-2,4.846459E-2,-5.374056E-2,5.7509292E-2,-5.005571E-2,5.7874758E-2,1.4563666E-1,-4.2524084E-2,1.8268403E-1,-2.3984352E-2,6.89727E-2,-3.5410743E-2,-2.6380464E-2,-5.1319208E-2,4.2559776E-2,-3.692938E-2,1.7274152E-1,3.8639408E-2],"categories":[],"categories_nodes":[],"categories_segments":[],"categories_sizes":[],"default_left":[0,0,0,0,0,0,0,0,0,0,0,0,0,0,0,0,0,0,0,0,0,0,0,0,0,0,0,0,0,0,0,0,0,0,0,0,0,0,0,0,0,0,0,0,0,0,0,0,0,0,0,0,0,0,0,0,0,0,0],"id":12,"left_children":[1,3,5,7,9,11,13,15,17,19,21,23,25,-1,-1,27,-1,-1,29,31,33,35,37,39,-1,41,-1,-1,-1,-1,-1,-1,43,45,47,49,51,53,55,57,-1,-1,-1,-1,-1,-1,-1,-1,-1,-1,-1,-1,-1,-1,-1,-1,-1,-1,-1],"loss_changes":[6.1870544E2,1.0285931E2,2.5737793E1,4.6726475E1,1.9257126E1,1.4797894E1,1.1401367E-1,6.7479553E0,7.1088853E0,3.2318615E1,8.937042E0,1.3617699E1,3.3869061E0,0E0,0E0,3.5953827E0,0E0,0E0,1.8279111E0,7.6023006E0,1.1221199E1,1.7837244E1,6.631836E0,2.59412E0,0E0,1.8460947E0,0E0,0E0,0E0,0E0,0E0,0E0,3.3119068E0,1.8148066E0,8.502365E0,1.0430737E1,4.3695602E0,2.1832733E0,5.9077187E0,3.0041924E0,0E0,0E0,0E0,0E0,0E0,0E0,0E0,0E0,0E0,0E0,0E0,0E0,0E0,0E0,0E0,0E0,0E0,0E0,0E0],"parents":[2147483647,0,0,1,1,2,2,3,3,4,4,5,5,6,6,7,7,8,8,9,9,10,10,11,11,12,12,15,15,18,18,19,19,20,20,21,21,22,22,23,23,25,25,32,32,33,33,34,34,35,35,36,36,37,37,38,38,39,39],"right_children":[2,4,6,8,10,12,14,16,18,20,22,24,26,-1,-1,28,-1,-1,30,32,34,36,38,40,-1,42,-1,-1,-1,-1,-1,-1,44,46,48,50,52,54,56,58,-1,-1,-1,-1,-1,-1,-1,-1,-1,-1,-1,-1,-1,-1,-1,-1,-1,-1,-1],"split_conditions":[2.9324645E-2,1.369183E-1,4.0576283E-2,1.61979E-1,1.597891E-1,5.6939192E-2,5.319288E-1,9.2869356E-2,1.1397196E-2,9.9344456E-1,3.0354885E-3,3.2775573E-2,7.749426E-3,1.809537E-1,5.5772968E-2,3.442194E-3,-3.3106204E-2,1.449546E-1,3.3045194E-1,5.7845194E-2,3.068664E-1,5.0176485E-3,9.79385E-1,1.1503603E-1,-4.7174443E-2,8.900507E-1,1.0092782E-1,1.8455397E-1,7.958064E-3,-5.5381235E-2,3.8834974E-2,1.4101797E-1,2.3027928E-1,1.5123306E-1,6.4102006E-1,2.6423305E-1,6.1987975E-4,1.9093974E-1,3.3723816E-1,5.745621E-1,2.5765408E-2,-5.3014822E-2,4.846459E-2,-5.374056E-2,5.7509292E-2,-5.005571E-2,5.7874758E-2,1.4563666E-1,-4.2524084E-2,1.8268403E-1,-2.3984352E-2,6.89727E-2,-3.5410743E-2,-2.6380464E-2,-5.1319208E-2,4.2559776E-2,-3.692938E-2,1.7274152E-1,3.8639408E-2],"split_indices":[27,37,27,35,35,34,31,2,20,4,11,2,6,0,0,11,0,0,9,20,9,27,1,18,0,29,0,0,0,0,0,0,31,31,20,37,1,35,20,20,0,0,0,0,0,0,0,0,0,0,0,0,0,0,0,0,0,0,0],"split_type":[0,0,0,0,0,0,0,0,0,0,0,0,0,0,0,0,0,0,0,0,0,0,0,0,0,0,0,0,0,0,0,0,0,0,0,0,0,0,0,0,0,0,0,0,0,0,0,0,0,0,0,0,0,0,0,0,0,0,0],"sum_hessian":[1.1864147E3,9.9213806E2,1.9427655E2,5.2831238E1,9.393068E2,3.8447563E1,1.5582898E2,3.431384E1,1.8517399E1,7.775782E1,8.61549E2,2.7580095E1,1.0867469E1,1.5466331E2,1.1656688E0,3.3031254E1,1.2825849E0,1.2337577E0,1.7283642E1,5.0012447E1,2.7745377E1,8.513295E1,7.764161E2,2.397557E1,3.6045246E0,9.648173E0,1.2192953E0,3.1740623E1,1.2906301E0,1.5649974E1,1.633668E0,1.2717264E0,4.874072E1,6.158725E0,2.1586653E1,9.282339E0,7.585061E1,7.387611E2,3.7654972E1,2.1971827E1,2.0037434E0,8.253338E0,1.3948361E0,4.6699886E1,2.040833E0,4.9701676E0,1.1885574E0,1.9308434E1,2.2782197E0,5.7985616E0,3.4837782E0,3.332897E0,7.2517715E1,4.0434372E1,6.983267E2,1.4128462E1,2.3526512E1,1.9418665E1,2.553163E0],"tree_param":{"num_deleted":"0","num_feature":"38","num_nodes":"59","size_leaf_vector":"1"}},{"base_weights":[4.2026364E-3,-1.5416628E-1,5.1779693E-1,1.3246436E-1,-4.4854742E-1,8.869594E-1,-2.3476584E-2,-6.914483E-2,1.1777351E0,-2.5637367E-1,-5.5747163E-1,6.2455994E-1,1.7797668E0,-3.0106482E-1,9.308781E-1,-2.970703E-1,3.1260735E-1,8.4044054E-2,1.406165E0,5.830741E-1,-4.3363222E-1,-5.6422526E-1,6.810709E-2,-4.53694E-1,7.988879E-1,1.8505055E0,-3.0938003E-2,-4.0767348E-1,9.051261E-1,7.533608E-2,1.6128458E0,-3.9241338E-1,6.8649393E-1,5.3440284E-2,1.6340363E0,-5.2177288E-2,8.3381987E-1,1.5751303E0,-8.2124695E-3,-5.3889055E-2,1.2895788E0,-4.9781096E-1,2.6503468E-1,-5.70975E-1,-5.877717E-2,-5.5298287E-2,2.3967482E-2,4.209992E-1,1.3272128E0,1.9390833E0,5.938944E-1,-4.9149972E-1,2.0150724E-1,1.494348E-1,3.314702E-2,-2.6128757E-1,1.23668805E-1,-2.1326593E-3,1.8246269E0,-4.2360738E-2,6.788009E-2,-5.1850613E-2,1.3565719E-1,-2.8864337E-2,4.4974957E-2,1.7433663E-1,2.6296232E-2,-1.2188018E-2,1.3949773E-1,1.6558217E-1,-3.8895037E-2,7.7735156E-2,-4.930016E-2,-4.1867122E-2,1.5755534E-1,4.9329918E-2,-5.128404E-2,1.1634048E-1,-1.1876988E-2,-5.7439845E-2,6.706544E-3,-4.2997483E-2,6.2938355E-2,6.647115E-2,-3.786012E-2,1.5634724E-1,1.385644E-2,5.0717898E-2,1.9814451E-1,-3.2879043E-2,1.1799325E-1,-5.2910294E-2,3.081427E-2,6.027745E-2,-4.6248056E-2,5.7261545E-2,-3.8953546E-2,-5.2979805E-2,7.793798E-2,5.086307E-2,1.9286294E-1],"categories":[],"categories_nodes":[],"categories_segments":[],"categories_sizes":[],"default_left":[0,0,0,0,0,0,0,0,0,0,0,0,0,0,0,0,0,0,0,0,0,0,0,0,0,0,0,0,0,0,0,0,0,0,0,0,0,0,0,0,0,0,0,0,0,0,0,0,0,0,0,0,0,0,0,0,0,0,0,0,0,0,0,0,0,0,0,0,0,0,0,0,0,0,0,0,0,0,0,0,0,0,0,0,0,0,0,0,0,0,0,0,0,0,0,0,0,0,0,0,0],"id":13,"left_children":[1,3,5,7,9,11,13,15,17,19,21,23,25,27,29,31,33,35,37,39,41,43,-1,45,47,49,-1,51,53,55,57,59,61,63,65,-1,67,69,71,-1,73,75,77,79,81,-1,-1,83,85,87,89,91,93,-1,95,97,-1,-1,99,-1,-1,-1,-1,-1,-1,-1,-1,-1,-1,-1,-1,-1,-1,-1,-1,-1,-1,-1,-1,-1,-1,-1,-1,-1,-1,-1,-1,-1,-1,-1,-1,-1,-1,-1,-1,-1,-1,-1,-1,-1,-1],"loss_changes":[9.67539E1,7.677709E1,5.603968E1,9.73235E1,9.250839E0,3.7941498E1,3.0653067E1,3.3833458E1,1.8535782E1,2.4685091E1,2.772995E0,2.4869072E1,6.088417E0,1.1887105E1,1.5093731E1,2.308687E1,4.9726727E1,6.777901E0,1.4758545E1,2.3724804E1,6.236515E0,9.372864E-1,0E0,1.4256134E0,2.1920113E1,2.8827667E0,0E0,4.336831E0,3.8472629E0,5.255199E0,5.0440254E0,7.720913E0,1.8358812E1,1.6756062E1,3.111576E0,0E0,3.7232385E0,9.380127E0,3.2696836E0,0E0,9.512602E0,2.1155071E0,4.312428E0,6.5166473E-1,1.5133051E0,0E0,0E0,1.3328826E1,1.2838058E1,1.0220566E0,2.4579453E0,2.3653088E0,3.142279E0,0E0,1.1536347E0,3.376687E0,0E0,0E0,7.728996E-1,0E0,0E0,0E0,0E0,0E0,0E0,0E0,0E0,0E0,0E0,0E0,0E0,0E0,0E0,0E0,0E0,0E0,0E0,0E0,0E0,0E0,0E0,0E0,0E0,0E0,0E0,0E0,0E0,0E0,0E0,0E0,0E0,0E0,0E0,0E0,0E0,0E0,0E0,0E0,0E0,0E0,0E0],"parents":[2147483647,0,0,1,1,2,2,3,3,4,4,5,5,6,6,7,7,8,8,9,9,10,10,11,11,12,12,13,13,14,14,15,15,16,16,17,17,18,18,19,19,20,20,21,21,23,23,24,24,25,25,27,27,28,28,29,29,30,30,31,31,32,32,33,33,34,34,36,36,37,37,38,38,40,40,41,41,42,42,43,43,44,44,47,47,48,48,49,49,50,50,51,51,52,52,54,54,55,55,58,58],"right_children":[2,4,6,8,10,12,14,16,18,20,22,24,26,28,30,32,34,36,38,40,42,44,-1,46,48,50,-1,52,54,56,58,60,62,64,66,-1,68,70,72,-1,74,76,78,80,82,-1,-1,84,86,88,90,92,94,-1,96,98,-1,-1,100,-1,-1,-1,-1,-1,-1,-1,-1,-1,-1,-1,-1,-1,-1,-1,-1,-1,-1,-1,-1,-1,-1,-1,-1,-1,-1,-1,-1,-1,-1,-1,-1,-1,-1,-1,-1,-1,-1,-1,-1,-1,-1],"split_conditions":[4.8726115E-1,5.1821005E-1,2.1591386E-2,3.681177E-2,1.5950004E-2,5.5367287E-2,4.628503E-1,8.5651624E-1,3.6722403E-3,5.4747863E-3,1.18716076E-1,4.1388273E-3,6.619961E-1,3.556397E-1,1.2766171E-2,2.9356992E-2,1.0518838E-1,6.579555E-1,8.304659E-2,1.830908E-1,1.564557E-1,6.6766614E-1,6.810709E-2,2.7138428E-4,1.6406175E-2,1.4653117E-2,-3.0938003E-2,7.396916E-2,7.840404E-1,2.2725359E-2,7.087462E-3,2.0096152E-1,4.3103603E-1,5.0674267E-2,1.5388403E-2,-5.2177288E-2,4.0351757E-1,4.0576283E-2,1.6456373E-2,-5.3889055E-2,2.4576606E-1,8.2655024E-4,3.3756593E-1,1.2632216E-2,5.6025917E-3,-5.5298287E-2,2.3967482E-2,5.63783E-1,3.1592494E-1,1.1490566E-1,1.8589307E-3,5.1686592E-2,9.949403E-1,1.494348E-1,1.0004476E-4,5.924497E-2,1.23668805E-1,-2.1326593E-3,3.5304803E-2,-4.2360738E-2,6.788009E-2,-5.1850613E-2,1.3565719E-1,-2.8864337E-2,4.4974957E-2,1.7433663E-1,2.6296232E-2,-1.2188018E-2,1.3949773E-1,1.6558217E-1,-3.8895037E-2,7.7735156E-2,-4.930016E-2,-4.1867122E-2,1.5755534E-1,4.9329918E-2,-5.128404E-2,1.1634048E-1,-1.1876988E-2,-5.7439845E-2,6.706544E-3,-4.2997483E-2,6.2938355E-2,6.647115E-2,-3.786012E-2,1.5634724E-1,1.385644E-2,5.0717898E-2,1.9814451E-1,-3.2879043E-2,1.1799325E-1,-5.2910294E-2,3.081427E-2,6.027745E-2,-4.6248056E-2,5.7261545E-2,-3.8953546E-2,-5.2979805E-2,7.793798E-2,5.086307E-2,1.9286294E-1],"split_indices":[20,31,2,12,2,5,22,4,5,27,15,18,22,9,27,6,0,22,16,4,18,10,0,6,27,2,0,5,28,6,0,10,21,8,36,0,21,27,3,0,37,4,25,27,5,0,0,22,0,35,16,14,8,0,16,17,0,0,2,0,0,0,0,0,0,0,0,0,0,0,0,0,0,0,0,0,0,0,0,0,0,0,0,0,0,0,0,0,0,0,0,0,0,0,0,0,0,0,0,0,0],"split_type":[0,0,0,0,0,0,0,0,0,0,0,0,0,0,0,0,0,0,0,0,0,0,0,0,0,0,0,0,0,0,0,0,0,0,0,0,0,0,0,0,0,0,0,0,0,0,0,0,0,0,0,0,0,0,0,0,0,0,0,0,0,0,0,0,0,0,0,0,0,0,0,0,0,0,0,0,0,0,0,0,0,0,0,0,0,0,0,0,0,0,0,0,0,0,0,0,0,0,0,0,0],"sum_hessian":[1.1875566E3,9.082071E2,2.7934958E2,4.6043982E2,4.4776727E2,1.6569955E2,1.13650024E2,3.867737E2,7.366609E1,1.6319603E2,2.8457126E2,1.2937524E2,3.632432E1,8.857206E1,2.5077963E1,2.4231886E2,1.4445485E2,1.2964028E1,6.0702065E1,2.8053408E1,1.3514262E2,2.8356943E2,1.0018291E0,1.7782757E1,1.1159248E2,3.5245148E1,1.079175E0,8.198763E1,6.584427E0,1.1615968E1,1.3461995E1,2.2145305E2,2.0865814E1,1.21638725E2,2.2816122E1,7.338574E0,5.6254544E0,5.412276E1,6.579304E0,1.0931263E1,1.7122145E1,1.2403628E2,1.1106347E1,2.7970462E2,3.8648145E0,1.5732382E1,2.0503738E0,6.610628E1,4.5486206E1,3.241699E1,2.8281598E0,7.224021E1,9.747427E0,3.5033603E0,3.0810666E0,9.606492E0,2.0094752E0,1.6476314E0,1.18143635E1,2.1577422E2,5.678841E0,7.537443E0,1.332837E1,6.543159E1,5.6207138E1,2.0879639E1,1.9364843E0,2.3707187E0,3.2547357E0,5.2137707E1,1.9850526E0,2.2804782E0,4.2988257E0,2.3887992E0,1.4733345E1,1.3774698E0,1.22658806E2,2.7165303E0,8.389817E0,2.7831107E2,1.3935461E0,2.7543082E0,1.1105063E0,5.0793488E1,1.5312787E1,3.768123E1,7.8049793E0,1.3042296E0,3.1112759E1,1.269058E0,1.5591018E0,6.931882E1,2.9213946E0,6.1331654E0,3.6142614E0,1.1977122E0,1.8833544E0,8.026436E0,1.5800563E0,1.2967311E0,1.05176325E1],"tree_param":{"num_deleted":"0","num_feature":"38","num_nodes":"101","size_leaf_vector":"1"}},{"base_weights":[9.300495E-3,-1.6661817E-1,9.135145E-1,6.8069056E-2,-4.6026078E-1,-3.2032672E-1,1.1785002E0,-3.5008463E-1,5.249255E-1,-4.8689118E-1,7.65944E-1,-5.344493E-1,6.5581185E-1,1.3691522E0,4.39329E-1,3.331251E-3,-5.510722E-1,1.1014731E0,1.5374495E-1,-5.460428E-1,-2.4069983E-1,-2.927895E-1,1.628321E0,-5.6733012E-2,1.7726164E-2,1.4768581E-1,-4.3516256E-2,9.7102517E-1,1.7342788E0,1.6234672E0,1.6013713E-1,-3.1062752E-1,4.343854E-1,-5.6105024E-1,-1.7800999E-1,1.2694283E0,-3.7579483E-1,7.4360347E-1,-4.3134612E-1,-1.5147004E-1,-5.645365E-1,1.7933816E-1,-5.057993E-1,1.5747204E-2,-4.5063265E-2,5.46843E-2,1.8112344E-1,1.4337617E0,2.2846186E-1,1.7643175E0,1.0118546E-2,4.9542304E-2,1.818264E-1,-4.0837505E-1,5.80895E-1,-3.6778726E-2,9.950825E-2,1.156515E-1,1.1377147E-2,-2.0906523E-2,-5.6611605E-2,-4.637913E-2,4.282495E-2,1.4047313E-1,8.399645E-3,3.7029322E-2,-5.417123E-2,1.3707481E-1,2.3627607E-2,1.979383E-2,-5.0568014E-2,-5.4463036E-2,6.714506E-2,1.7525196E-2,-5.6742996E-2,1.0363467E-1,-4.183519E-2,-5.7965886E-2,9.002214E-2,1.6494748E-1,4.2492397E-2,-4.844537E-3,1.5915863E-1,1.7912267E-1,4.089906E-2,-5.5638738E-2,6.614327E-2,9.18359E-2,-4.8106547E-2],"categories":[],"categories_nodes":[],"categories_segments":[],"categories_sizes":[],"default_left":[0,0,0,0,0,0,0,0,0,0,0,0,0,0,0,0,0,0,0,0,0,0,0,0,0,0,0,0,0,0,0,0,0,0,0,0,0,0,0,0,0,0,0,0,0,0,0,0,0,0,0,0,0,0,0,0,0,0,0,0,0,0,0,0,0,0,0,0,0,0,0,0,0,0,0,0,0,0,0,0,0,0,0,0,0,0,0,0,0],"id":14,"left_children":[1,3,5,7,9,11,13,15,17,19,21,23,25,27,29,31,33,35,37,39,41,43,45,-1,-1,-1,-1,47,49,51,53,55,57,59,61,63,65,67,69,71,73,75,77,-1,-1,-1,-1,79,81,83,-1,-1,-1,85,87,-1,-1,-1,-1,-1,-1,-1,-1,-1,-1,-1,-1,-1,-1,-1,-1,-1,-1,-1,-1,-1,-1,-1,-1,-1,-1,-1,-1,-1,-1,-1,-1,-1,-1],"loss_changes":[1.9057498E2,6.915148E1,6.417383E1,1.0684433E2,1.4925735E1,7.725231E0,2.2065048E1,2.0751118E1,5.701568E1,6.2295227E0,9.480738E0,7.906151E-1,6.730458E0,1.6834274E1,1.1129814E1,1.4601078E1,5.933113E-1,2.6403442E1,5.682467E1,2.4786758E0,9.712195E0,4.4582105E-1,1.14788055E-1,0E0,0E0,0E0,0E0,2.1393257E1,3.0187988E0,5.195141E-1,7.171329E0,5.0253625E0,1.0394248E1,2.04216E-1,1.2928473E0,1.4967636E1,1.6166122E0,2.5732784E1,3.9744673E0,5.8979893E0,8.171463E-1,1.793696E1,6.0501595E0,0E0,0E0,0E0,0E0,7.732956E0,9.686575E0,1.5993195E0,0E0,0E0,0E0,2.4132602E0,6.559796E0,0E0,0E0,0E0,0E0,0E0,0E0,0E0,0E0,0E0,0E0,0E0,0E0,0E0,0E0,0E0,0E0,0E0,0E0,0E0,0E0,0E0,0E0,0E0,0E0,0E0,0E0,0E0,0E0,0E0,0E0,0E0,0E0,0E0,0E0],"parents":[2147483647,0,0,1,1,2,2,3,3,4,4,5,5,6,6,7,7,8,8,9,9,10,10,11,11,12,12,13,13,14,14,15,15,16,16,17,17,18,18,19,19,20,20,21,21,22,22,27,27,28,28,29,29,30,30,31,31,32,32,33,33,34,34,35,35,36,36,37,37,38,38,39,39,40,40,41,41,42,42,47,47,48,48,49,49,53,53,54,54],"right_children":[2,4,6,8,10,12,14,16,18,20,22,24,26,28,30,32,34,36,38,40,42,44,46,-1,-1,-1,-1,48,50,52,54,56,58,60,62,64,66,68,70,72,74,76,78,-1,-1,-1,-1,80,82,84,-1,-1,-1,86,88,-1,-1,-1,-1,-1,-1,-1,-1,-1,-1,-1,-1,-1,-1,-1,-1,-1,-1,-1,-1,-1,-1,-1,-1,-1,-1,-1,-1,-1,-1,-1,-1,-1,-1],"split_conditions":[8.042215E-1,6.3971907E-1,2.8949198E-3,1.6053628E-2,6.1639078E-2,2.8981011E-2,9.142095E-3,1.7697655E-2,6.6357024E-2,4.5074913E-1,6.583156E-1,1.1417253E-1,3.6932167E-3,9.3473494E-2,1.3183917E-2,6.0621235E-3,9.5791906E-1,8.4678835E-1,1.336306E-1,2.4191936E-2,7.8716755E-2,4.7452068E-1,5.7366034E-3,-5.6733012E-2,1.7726164E-2,1.4768581E-1,-4.3516256E-2,3.5509244E-2,1.110853E-1,1.01552475E-2,3.590554E-1,9.9285975E-2,7.9201025E-5,1.7939063E-2,6.2178E-5,1.9817496E-2,1.8879634E-1,2.9717857E-1,1.5877861E-1,1.5838273E-2,5.611524E-4,2.8495124E-1,9.937321E-1,1.5747204E-2,-4.5063265E-2,5.46843E-2,1.8112344E-1,2.0365994E-2,7.164001E-1,9.5039946E-1,1.0118546E-2,4.9542304E-2,1.818264E-1,4.7855446E-1,4.795078E-2,-3.6778726E-2,9.950825E-2,1.156515E-1,1.1377147E-2,-2.0906523E-2,-5.6611605E-2,-4.637913E-2,4.282495E-2,1.4047313E-1,8.399645E-3,3.7029322E-2,-5.417123E-2,1.3707481E-1,2.3627607E-2,1.979383E-2,-5.0568014E-2,-5.4463036E-2,6.714506E-2,1.7525196E-2,-5.6742996E-2,1.0363467E-1,-4.183519E-2,-5.7965886E-2,9.002214E-2,1.6494748E-1,4.2492397E-2,-4.844537E-3,1.5915863E-1,1.7912267E-1,4.089906E-2,-5.5638738E-2,6.614327E-2,9.18359E-2,-4.8106547E-2],"split_indices":[21,33,17,17,7,18,6,27,23,20,21,7,36,18,5,17,10,22,26,8,23,22,5,0,0,0,0,9,5,6,0,36,15,27,7,6,33,35,22,12,10,0,9,0,0,0,0,23,0,29,0,0,0,37,13,0,0,0,0,0,0,0,0,0,0,0,0,0,0,0,0,0,0,0,0,0,0,0,0,0,0,0,0,0,0,0,0,0,0],"split_type":[0,0,0,0,0,0,0,0,0,0,0,0,0,0,0,0,0,0,0,0,0,0,0,0,0,0,0,0,0,0,0,0,0,0,0,0,0,0,0,0,0,0,0,0,0,0,0,0,0,0,0,0,0,0,0,0,0,0,0,0,0,0,0,0,0,0,0,0,0,0,0,0,0,0,0,0,0,0,0,0,0,0,0,0,0,0,0,0,0],"sum_hessian":[1.1961145E3,1.001989E3,1.9412547E2,5.5732654E2,4.4466248E2,3.428356E1,1.5984192E2,2.911109E2,2.6621564E2,4.3580078E2,8.861677E0,2.8487192E1,5.796371E0,1.2639022E2,3.3451694E1,1.0589279E2,1.852181E2,1.0349356E2,1.6272208E2,3.5039465E2,8.540616E1,4.274452E0,4.5872254E0,2.7423117E1,1.064076E0,3.1055145E0,2.6908562E0,6.2213375E1,6.417684E1,5.4636793E0,2.7988016E1,6.1429745E1,4.4463047E1,1.7990248E2,5.315618E0,9.305459E1,1.0438972E1,8.0896E1,8.182608E1,1.6099285E1,3.3429535E2,3.3171284E1,5.223487E1,1.1101116E0,3.1643405E0,1.2407714E0,3.346454E0,3.7755062E1,2.4458313E1,6.293881E1,1.2380342E0,1.3263327E0,4.1373467E0,1.1916424E1,1.6071594E1,5.9541534E1,1.8882109E0,1.2869483E1,3.1593561E1,3.1521854E0,1.7675029E2,3.7723746E0,1.5432434E0,8.335555E1,9.699039E0,1.6750253E0,8.7639475E0,3.541501E1,4.5480995E1,8.468873E0,7.335721E1,1.112321E1,4.976074E0,1.0703114E0,3.3322504E2,1.3327496E1,1.9843788E1,5.018627E1,2.0486004E0,3.0581089E1,7.1739745E0,2.1130325E1,3.3279874E0,6.1398163E1,1.5406443E0,1.0889706E1,1.0267177E0,1.2298626E1,3.7729673E0],"tree_param":{"num_deleted":"0","num_feature":"38","num_nodes":"89","size_leaf_vector":"1"}},{"base_weights":[-1.2821361E-2,2.4821982E-1,-4.079992E-1,-3.151101E-1,4.2805597E-1,-1.3441919E-1,-5.06256E-1,-5.043067E-1,5.9324646E-1,7.26318E-1,-3.1125894E-1,-4.0268517E-1,7.8621805E-1,-5.626489E-1,-3.3785537E-1,7.205897E-1,-5.438072E-1,-1.8149397E-1,1.3198857E0,1.2159189E0,3.9405906E-1,-4.8607194E-1,9.254932E-1,7.58824E-2,-5.5375594E-1,-1.035344E-2,1.4744449E0,-5.7733804E-1,-2.998985E-1,7.5619835E-1,-3.8612196E-1,1.3075769E-1,-3.5524875E-2,2.4365707E-1,-5.713886E-1,-5.307266E-2,1.5928744E-1,4.4685864E-1,1.8288981E0,9.0236723E-1,1.67892E0,3.1117576E-1,1.8423188E0,-2.4208922E-2,-5.602413E-1,1.4698311E0,-2.3748012E-1,-4.1551465E-1,6.9948024E-1,-5.7926964E-2,-4.760832E-2,-4.302869E-1,6.855278E-1,1.7938511E-1,2.3467438E-1,-5.812487E-2,-2.3861888E-1,4.39557E-1,-5.395911E-2,-3.738619E-2,1.6617338E-1,9.75107E-2,-4.281268E-1,-4.5341473E-2,1.4476262E-1,-5.7868045E-2,1.9443803E-2,9.055737E-2,-3.3069205E-2,1.4117144E-1,-1.3553497E-2,2.0349625E-1,4.293755E-2,-1.4282773E-2,1.2543516E-1,1.7488171E-1,-1.116142E-2,6.066664E-2,7.2414253E-4,1.632539E-2,1.9912739E-1,-4.165123E-2,8.731451E-2,-5.8504183E-2,-8.802353E-3,1.743903E-1,-3.64404E-2,6.0319096E-2,-4.999992E-2,-5.4780193E-2,2.7208287E-2,1.2972227E-1,-2.7998317E-2,-4.2490687E-2,5.610582E-2,1.7079182E-2,-5.268627E-2,1.3115293E-1,-3.9065015E-2,1.0823341E-1,-4.0929865E-2,-4.212388E-2,1.8059276E-2,1.2422141E-1,-3.9360162E-2,-4.9634814E-2,-5.0212266E-3],"categories":[],"categories_nodes":[],"categories_segments":[],"categories_sizes":[],"default_left":[0,0,0,0,0,0,0,0,0,0,0,0,0,0,0,0,0,0,0,0,0,0,0,0,0,0,0,0,0,0,0,0,0,0,0,0,0,0,0,0,0,0,0,0,0,0,0,0,0,0,0,0,0,0,0,0,0,0,0,0,0,0,0,0,0,0,0,0,0,0,0,0,0,0,0,0,0,0,0,0,0,0,0,0,0,0,0,0,0,0,0,0,0,0,0,0,0,0,0,0,0,0,0,0,0,0,0],"id":15,"left_children":[1,3,5,7,9,11,13,15,17,19,21,23,25,27,29,31,33,35,37,39,41,43,45,47,49,51,53,55,57,59,61,-1,-1,63,65,-1,67,69,71,73,75,77,79,81,83,85,87,89,91,-1,93,95,97,-1,99,-1,101,103,-1,-1,-1,-1,105,-1,-1,-1,-1,-1,-1,-1,-1,-1,-1,-1,-1,-1,-1,-1,-1,-1,-1,-1,-1,-1,-1,-1,-1,-1,-1,-1,-1,-1,-1,-1,-1,-1,-1,-1,-1,-1,-1,-1,-1,-1,-1,-1,-1],"loss_changes":[1.2231101E2,7.247282E1,1.2610214E1,3.0093431E1,1.1967184E2,3.1433464E1,3.1018982E0,7.3601913E0,1.732208E1,6.2356888E1,3.42661E1,7.1433764E0,1.578632E1,8.233566E-1,5.016327E0,3.5774512E0,3.1819305E0,1.936981E0,6.194689E0,2.1085815E1,2.7225842E1,4.7033844E0,1.28295765E1,7.7819223E0,9.380703E-1,4.481745E0,5.6932716E0,1.8375397E-1,3.02886E0,4.835468E0,5.354663E0,0E0,0E0,5.223425E0,8.7002563E-1,0E0,3.4613938E0,4.2006006E0,1.9075623E0,3.512252E1,7.9168243E0,1.9776724E1,2.7594833E0,7.438835E0,1.3374481E0,7.456455E0,1.8787841E0,1.4497736E0,6.889221E0,0E0,1.3126972E0,6.44336E-1,4.4046907E0,0E0,2.7976406E0,0E0,4.186555E-1,3.4359422E0,0E0,0E0,0E0,0E0,2.1525488E0,0E0,0E0,0E0,0E0,0E0,0E0,0E0,0E0,0E0,0E0,0E0,0E0,0E0,0E0,0E0,0E0,0E0,0E0,0E0,0E0,0E0,0E0,0E0,0E0,0E0,0E0,0E0,0E0,0E0,0E0,0E0,0E0,0E0,0E0,0E0,0E0,0E0,0E0,0E0,0E0,0E0,0E0,0E0,0E0],"parents":[2147483647,0,0,1,1,2,2,3,3,4,4,5,5,6,6,7,7,8,8,9,9,10,10,11,11,12,12,13,13,14,14,15,15,16,16,17,17,18,18,19,19,20,20,21,21,22,22,23,23,24,24,25,25,26,26,27,27,28,28,29,29,30,30,33,33,34,34,36,36,37,37,38,38,39,39,40,40,41,41,42,42,43,43,44,44,45,45,46,46,47,47,48,48,50,50,51,51,52,52,54,54,56,56,57,57,62,62],"right_children":[2,4,6,8,10,12,14,16,18,20,22,24,26,28,30,32,34,36,38,40,42,44,46,48,50,52,54,56,58,60,62,-1,-1,64,66,-1,68,70,72,74,76,78,80,82,84,86,88,90,92,-1,94,96,98,-1,100,-1,102,104,-1,-1,-1,-1,106,-1,-1,-1,-1,-1,-1,-1,-1,-1,-1,-1,-1,-1,-1,-1,-1,-1,-1,-1,-1,-1,-1,-1,-1,-1,-1,-1,-1,-1,-1,-1,-1,-1,-1,-1,-1,-1,-1,-1,-1,-1,-1,-1,-1],"split_conditions":[1.7385456E-1,5.070034E-2,4.4915926E-2,4.5074913E-1,1.8123254E-1,6.676862E-2,2.2976355E-1,7.979601E-2,4.583748E-3,6.6738753E-3,1.9950014E-1,1.4875853E-2,5.8538164E-4,2.5035056E-1,6.15695E-5,1.7148344E-2,1.5896235E-2,3.2285288E-1,8.2479227E-1,4.046463E-2,9.54026E-1,2.5711283E-2,7.460567E-2,4.264218E-3,9.408103E-1,7.733094E-1,5.2868795E-1,7.60935E-1,3.354573E-1,3.5755515E-2,6.4720577E-3,1.3075769E-1,-3.5524875E-2,9.9927866E-1,8.304659E-2,-5.307266E-2,5.635583E-3,1.2426165E-1,6.1402833E-1,4.8052357E-4,3.0395812E-1,2.9775241E-2,1.8907154E-1,9.181909E-1,9.968872E-1,2.6996312E-1,3.9748643E-3,9.108113E-2,2.5376767E-2,-5.7926964E-2,1.086716E-3,1.5623492E-4,1.6228564E-3,1.7938511E-1,1.3776991E-1,-5.812487E-2,5.6023773E-2,3.3371507E-3,-5.395911E-2,-3.738619E-2,1.6617338E-1,9.75107E-2,2.6712376E-1,-4.5341473E-2,1.4476262E-1,-5.7868045E-2,1.9443803E-2,9.055737E-2,-3.3069205E-2,1.4117144E-1,-1.3553497E-2,2.0349625E-1,4.293755E-2,-1.4282773E-2,1.2543516E-1,1.7488171E-1,-1.116142E-2,6.066664E-2,7.2414253E-4,1.632539E-2,1.9912739E-1,-4.165123E-2,8.731451E-2,-5.8504183E-2,-8.802353E-3,1.743903E-1,-3.64404E-2,6.0319096E-2,-4.999992E-2,-5.4780193E-2,2.7208287E-2,1.2972227E-1,-2.7998317E-2,-4.2490687E-2,5.610582E-2,1.7079182E-2,-5.268627E-2,1.3115293E-1,-3.9065015E-2,1.0823341E-1,-4.0929865E-2,-4.212388E-2,1.8059276E-2,1.2422141E-1,-3.9360162E-2,-4.9634814E-2,-5.0212266E-3],"split_indices":[0,26,18,20,26,2,4,8,27,17,2,27,15,2,7,0,18,24,9,2,28,9,24,13,29,21,22,20,25,3,23,0,0,8,16,0,13,19,20,12,25,17,4,29,8,26,0,26,18,0,12,12,17,0,2,0,10,16,0,0,0,0,19,0,0,0,0,0,0,0,0,0,0,0,0,0,0,0,0,0,0,0,0,0,0,0,0,0,0,0,0,0,0,0,0,0,0,0,0,0,0,0,0,0,0,0,0],"split_type":[0,0,0,0,0,0,0,0,0,0,0,0,0,0,0,0,0,0,0,0,0,0,0,0,0,0,0,0,0,0,0,0,0,0,0,0,0,0,0,0,0,0,0,0,0,0,0,0,0,0,0,0,0,0,0,0,0,0,0,0,0,0,0,0,0,0,0,0,0,0,0,0,0,0,0,0,0,0,0,0,0,0,0,0,0,0,0,0,0,0,0,0,0,0,0,0,0,0,0,0,0,0,0,0,0,0,0],"sum_hessian":[1.1836886E3,7.130462E2,4.7064243E2,1.7236554E2,5.4068066E2,1.2499163E2,3.456508E2,1.4302124E2,2.9344296E1,3.8526904E2,1.554116E2,9.722398E1,2.776765E1,2.5718518E2,8.846563E1,3.9294057E0,1.3909184E2,1.4565178E1,1.4779118E1,1.5468016E2,2.3058888E2,1.3669672E2,1.8714891E1,2.3446619E1,7.377736E1,1.3327275E1,1.4440376E1,2.4243451E2,1.4750662E1,3.118215E0,8.534741E1,2.4029384E0,1.5264674E0,4.441804E0,1.3465004E2,6.918115E0,7.647063E0,6.134864E0,8.644254E0,9.398261E1,6.0697548E1,2.1925583E2,1.1333057E1,1.9097887E1,1.1759883E2,1.25683365E1,6.1465554E0,1.3299921E1,1.0146698E1,7.009936E1,3.6780078E0,8.549623E0,4.7776527E0,1.1126816E1,3.3135602E0,2.389596E2,3.4749086E0,3.4067981E0,1.13438635E1,1.6483274E0,1.4698879E0,1.8898522E0,8.345756E1,3.2078998E0,1.233904E0,1.3362213E2,1.0279096E0,2.6946552E0,4.9524074E0,1.7732013E0,4.3616624E0,7.139064E0,1.5051897E0,2.3826267E1,7.015635E1,5.8439545E1,2.258004E0,1.1066714E2,1.08588684E2,1.0942576E0,1.0238799E1,1.3661309E1,5.4365783E0,1.1150381E2,6.0950255E0,1.0977346E1,1.5909905E0,1.1538502E0,4.9927053E0,1.1324504E1,1.9754168E0,6.099749E0,4.0469484E0,2.4569225E0,1.2210853E0,1.0771381E0,7.472485E0,2.882336E0,1.8953167E0,1.1366622E0,2.176898E0,2.417113E0,1.0577954E0,1.4850987E0,1.9216993E0,7.04301E1,1.3027463E1],"tree_param":{"num_deleted":"0","num_feature":"38","num_nodes":"107","size_leaf_vector":"1"}},{"base_weights":[-2.1276515E-2,-5.092033E-1,8.9559954E-1,5.3168595E-1,-5.4281926E-1,1.2179596E0,-4.6906906E-1,-5.468872E-2,1.7781739E-1,-5.838966E-2,-2.588762E-1,1.5769507E0,5.6789285E-1,-5.0511324E-1,1.1607881E-1,-5.457897E-1,1.5975415E0,1.6048717E0,2.148347E-1,1.0326067E0,-3.6269826E-1,-1.9695216E-1,-5.5097973E-1,-5.8058478E-2,4.8495254E-1,1.7771692E0,-2.9336736E-2,1.6339151E0,5.616498E-1,1.1900085E-1,-4.60146E-2,1.4965494E0,3.296048E-1,-4.5375025E-1,1.2531878E-1,-5.2672423E-2,9.7930215E-2,1.424737E-2,-5.6502575E-1,1.0497951E-1,-3.2004535E-2,1.9182748E-1,1.4933595E-2,9.949606E-2,1.689377E-1,-4.6394065E-2,1.4965719E-1,1.6433035E-1,4.7240937E-3,-1.7832512E-3,1.7552297E-1,-5.0125957E-2,5.890859E-2,-6.9744834E-3,-5.7975765E-2],"categories":[],"categories_nodes":[],"categories_segments":[],"categories_sizes":[],"default_left":[0,0,0,0,0,0,0,0,0,0,0,0,0,0,0,0,0,0,0,0,0,0,0,0,0,0,0,0,0,0,0,0,0,0,0,0,0,0,0,0,0,0,0,0,0,0,0,0,0,0,0,0,0,0,0],"id":16,"left_children":[1,3,5,7,9,11,13,-1,-1,-1,15,17,19,21,-1,23,25,27,29,31,33,35,37,-1,39,41,-1,43,45,-1,-1,47,49,51,-1,-1,-1,-1,53,-1,-1,-1,-1,-1,-1,-1,-1,-1,-1,-1,-1,-1,-1,-1,-1],"loss_changes":[5.3018207E2,2.7352463E1,1.8165381E2,3.4183914E1,8.593765E0,7.6875305E1,5.2494793E0,0E0,0E0,0E0,5.229957E1,7.79895E0,5.2323185E1,9.989929E-1,0E0,3.3076153E0,4.997967E0,5.4351807E0,4.138632E0,2.5721565E1,6.5638757E0,5.057263E0,7.394123E-1,0E0,1.8365316E0,2.510765E0,0E0,5.529663E0,7.6009235E0,0E0,0E0,1.0161026E1,1.6494379E1,2.2428045E0,0E0,0E0,0E0,0E0,4.4482613E-1,0E0,0E0,0E0,0E0,0E0,0E0,0E0,0E0,0E0,0E0,0E0,0E0,0E0,0E0,0E0,0E0],"parents":[2147483647,0,0,1,1,2,2,3,3,4,4,5,5,6,6,10,10,11,11,12,12,13,13,15,15,16,16,17,17,18,18,19,19,20,20,21,21,22,22,24,24,25,25,27,27,28,28,31,31,32,32,33,33,38,38],"right_children":[2,4,6,8,10,12,14,-1,-1,-1,16,18,20,22,-1,24,26,28,30,32,34,36,38,-1,40,42,-1,44,46,-1,-1,48,50,52,-1,-1,-1,-1,54,-1,-1,-1,-1,-1,-1,-1,-1,-1,-1,-1,-1,-1,-1,-1,-1],"split_conditions":[4.759969E-1,4.1904517E-2,5.412219E-1,9.7242326E-2,3.815851E-1,3.419368E-1,8.2136464E-1,-5.468872E-2,1.7781739E-1,-5.838966E-2,1.2442849E-1,5.2005634E-2,3.4790493E-3,1.8466084E-4,1.1607881E-1,1.3951923E-1,7.627246E-2,7.106726E-2,6.224925E-3,5.7094663E-2,3.002072E-1,5.1729774E-1,2.0343283E-1,-5.8058478E-2,1.608923E-2,9.700218E-1,-2.9336736E-2,3.3928084E-3,1.0230248E-2,1.1900085E-1,-4.60146E-2,5.5143136E-1,6.573926E-2,1.3010508E-1,1.2531878E-1,-5.2672423E-2,9.7930215E-2,1.424737E-2,1.3697903E-1,1.0497951E-1,-3.2004535E-2,1.9182748E-1,1.4933595E-2,9.949606E-2,1.689377E-1,-4.6394065E-2,1.4965719E-1,1.6433035E-1,4.7240937E-3,-1.7832512E-3,1.7552297E-1,-5.0125957E-2,5.890859E-2,-6.9744834E-3,-5.7975765E-2],"split_indices":[25,26,4,3,25,20,22,0,0,0,3,26,27,36,0,12,26,14,5,3,3,25,21,0,0,29,0,17,16,0,0,20,36,11,0,0,0,0,20,0,0,0,0,0,0,0,0,0,0,0,0,0,0,0,0],"split_type":[0,0,0,0,0,0,0,0,0,0,0,0,0,0,0,0,0,0,0,0,0,0,0,0,0,0,0,0,0,0,0,0,0,0,0,0,0,0,0,0,0,0,0,0,0,0,0,0,0,0,0,0,0,0,0],"sum_hessian":[1.1830936E3,7.724627E2,4.1063083E2,2.3703032E1,7.487597E2,3.322538E2,7.837704E1,1.3008323E1,1.0694709E1,6.532058E2,9.5553925E1,2.1312979E2,1.1912401E2,7.735639E1,1.020643E0,8.3374245E1,1.2179679E1,2.0867412E2,4.455676E0,7.9376E1,3.9748013E1,1.070789E1,6.6648506E1,8.1074135E1,2.3001087E0,1.1177973E1,1.0017065E0,2.024711E2,6.2030263E0,1.510445E0,2.9452312E0,4.7138428E1,3.2237568E1,3.830859E1,1.4394197E0,8.794488E0,1.9134012E0,1.1416492E0,6.550686E1,1.1729729E0,1.1271358E0,1.0122134E1,1.0558391E0,1.7683702E1,1.847874E2,3.1983106E0,3.0047157E0,4.268262E1,4.4558086E0,2.6714502E1,5.5230675E0,3.7136086E1,1.1725066E0,2.0578232E0,6.344903E1],"tree_param":{"num_deleted":"0","num_feature":"38","num_nodes":"55","size_leaf_vector":"1"}},{"base_weights":[4.2475313E-3,6.7722815E-1,-4.9675524E-1,-4.6002645E-2,9.3458736E-1,-2.097881E-1,-5.7066184E-1,-4.5461938E-1,4.076392E-1,1.141205E0,-2.1865215E-2,-3.8985416E-1,6.27927E-1,-5.7418287E-1,1.07055284E-1,-5.138159E-1,-7.5230435E-2,-4.211506E-1,9.3082243E-1,1.4283929E0,1.7883454E-1,-3.859084E-1,9.206328E-1,-4.5872083E-1,1.17994234E-1,-5.1147252E-2,1.033212E0,-5.8132906E-2,-3.137929E-1,-3.674214E-2,6.669816E-2,-5.2882797E-1,1.5776483E-2,-4.9961634E-2,4.6073344E-1,-4.9229246E-1,4.221658E-2,-5.2503772E-2,1.3192233E0,1.4867386E0,-3.966221E-1,-4.8067382E-1,6.921228E-1,-5.157331E-1,5.450204E-1,1.3160125E0,-4.8211418E-2,-9.141439E-2,-5.587255E-1,1.211995E0,-3.5493273E-1,1.3565392E0,-4.4932548E-2,1.3161652E-1,-5.484302E-2,-5.4378815E-2,-1.309108E-2,1.2030522E-1,-4.0840864E-2,-5.7263877E-2,9.028054E-3,1.7817496E-1,7.2750845E-3,8.60228E-4,1.5409495E-1,-5.0830632E-2,1.7275227E-2,-5.0949592E-2,1.9938948E-2,1.20655954E-1,1.0878213E-2,-5.820436E-2,1.0402393E-1,1.19086795E-1,-4.15544E-2,1.544331E-1,-3.8772326E-2,4.4660565E-2,-5.4384626E-2,-2.7350724E-2,-5.699703E-2,1.4601891E-2,1.5109693E-1,3.8302682E-2,-5.252372E-2,1.5700617E-1,-3.6043476E-2],"categories":[],"categories_nodes":[],"categories_segments":[],"categories_sizes":[],"default_left":[0,0,0,0,0,0,0,0,0,0,0,0,0,0,0,0,0,0,0,0,0,0,0,0,0,0,0,0,0,0,0,0,0,0,0,0,0,0,0,0,0,0,0,0,0,0,0,0,0,0,0,0,0,0,0,0,0,0,0,0,0,0,0,0,0,0,0,0,0,0,0,0,0,0,0,0,0,0,0,0,0,0,0,0,0,0,0],"id":17,"left_children":[1,3,5,7,9,11,13,15,17,19,21,23,25,27,29,31,33,35,37,39,41,43,45,47,49,-1,51,-1,53,-1,-1,55,-1,-1,57,59,-1,-1,61,63,65,67,69,71,73,75,-1,77,79,81,83,85,-1,-1,-1,-1,-1,-1,-1,-1,-1,-1,-1,-1,-1,-1,-1,-1,-1,-1,-1,-1,-1,-1,-1,-1,-1,-1,-1,-1,-1,-1,-1,-1,-1,-1,-1],"loss_changes":[3.993026E2,9.411316E1,1.4278824E1,2.4949635E1,7.369827E1,2.1456285E1,1.3483276E0,1.5504942E0,2.8072624E1,8.4481384E1,2.3415388E1,4.1235886E0,1.2193667E1,8.1617737E-1,1.2094923E0,6.987972E-1,2.6689732E0,1.7312398E0,2.2997372E1,2.5717865E1,2.4573303E1,6.2257266E0,1.1184364E1,3.7201385E0,8.030451E0,0E0,9.700075E0,0E0,7.0350194E0,0E0,0E0,2.855873E-1,0E0,0E0,3.8839452E0,1.1693921E0,0E0,0E0,1.7986534E1,1.8327576E1,6.029005E-1,7.2744894E-1,1.2075825E1,5.1123495E0,4.5311427E0,6.4754715E0,0E0,5.882005E0,1.0229492E-1,1.2645655E0,1.5873656E0,6.364937E0,0E0,0E0,0E0,0E0,0E0,0E0,0E0,0E0,0E0,0E0,0E0,0E0,0E0,0E0,0E0,0E0,0E0,0E0,0E0,0E0,0E0,0E0,0E0,0E0,0E0,0E0,0E0,0E0,0E0,0E0,0E0,0E0,0E0,0E0,0E0],"parents":[2147483647,0,0,1,1,2,2,3,3,4,4,5,5,6,6,7,7,8,8,9,9,10,10,11,11,12,12,13,13,14,14,15,15,16,16,17,17,18,18,19,19,20,20,21,21,22,22,23,23,24,24,26,26,28,28,31,31,34,34,35,35,38,38,39,39,40,40,41,41,42,42,43,43,44,44,45,45,47,47,48,48,49,49,50,50,51,51],"right_children":[2,4,6,8,10,12,14,16,18,20,22,24,26,28,30,32,34,36,38,40,42,44,46,48,50,-1,52,-1,54,-1,-1,56,-1,-1,58,60,-1,-1,62,64,66,68,70,72,74,76,-1,78,80,82,84,86,-1,-1,-1,-1,-1,-1,-1,-1,-1,-1,-1,-1,-1,-1,-1,-1,-1,-1,-1,-1,-1,-1,-1,-1,-1,-1,-1,-1,-1,-1,-1,-1,-1,-1,-1],"split_conditions":[1.5579627E-1,1.0981476E-1,9.369174E-2,3.887067E-2,9.992907E-1,6.4097905E-1,9.985798E-1,8.818314E-2,1.0368861E-2,9.921416E-1,9.488195E-1,8.747346E-1,1.138564E-3,8.7962484E-1,4.6640127E-3,1.4030749E-1,3.348989E-1,1.9897204E-3,1.2027622E-1,8.9372814E-1,2.1784909E-1,8.084557E-3,6.628575E-1,3.9609182E-1,3.273441E-1,-5.1147252E-2,5.781829E-1,-5.8132906E-2,1.8733065E-1,-3.674214E-2,6.669816E-2,9.875878E-1,1.5776483E-2,-4.9961634E-2,9.99671E-2,9.5645064E-1,4.221658E-2,-5.2503772E-2,6.854431E-1,4.969786E-1,1.1199642E-1,9.612956E-2,6.296229E-2,2.3800276E-2,3.1596415E-3,1.569132E-2,-4.8211418E-2,3.0692685E-1,2.9536188E-3,8.905608E-2,4.595333E-2,1.8038216E-1,-4.4932548E-2,1.3161652E-1,-5.484302E-2,-5.4378815E-2,-1.309108E-2,1.2030522E-1,-4.0840864E-2,-5.7263877E-2,9.028054E-3,1.7817496E-1,7.2750845E-3,8.60228E-4,1.5409495E-1,-5.0830632E-2,1.7275227E-2,-5.0949592E-2,1.9938948E-2,1.20655954E-1,1.0878213E-2,-5.820436E-2,1.0402393E-1,1.19086795E-1,-4.15544E-2,1.544331E-1,-3.8772326E-2,4.4660565E-2,-5.4384626E-2,-2.7350724E-2,-5.699703E-2,1.4601891E-2,1.5109693E-1,3.8302682E-2,-5.252372E-2,1.5700617E-1,-3.6043476E-2],"split_indices":[30,4,26,3,4,10,10,4,13,8,10,31,1,22,0,30,0,15,0,1,0,7,21,21,34,0,21,0,30,0,0,31,0,0,4,1,0,0,0,31,3,17,23,3,16,27,0,24,0,23,10,34,0,0,0,0,0,0,0,0,0,0,0,0,0,0,0,0,0,0,0,0,0,0,0,0,0,0,0,0,0,0,0,0,0,0,0],"split_type":[0,0,0,0,0,0,0,0,0,0,0,0,0,0,0,0,0,0,0,0,0,0,0,0,0,0,0,0,0,0,0,0,0,0,0,0,0,0,0,0,0,0,0,0,0,0,0,0,0,0,0,0,0,0,0,0,0,0,0,0,0,0,0,0,0,0,0,0,0,0,0,0,0,0,0,0,0,0,0,0,0,0,0,0,0,0,0],"sum_hessian":[1.1822961E3,5.0440015E2,6.7789594E2,1.325971E2,3.7180304E2,1.3961862E2,5.3827734E2,6.975937E1,6.283773E1,3.0559396E2,6.620909E1,1.153573E2,2.4261318E1,5.3564716E2,2.6301508E0,6.003735E1,9.722023E0,2.439226E1,3.844547E1,2.3498589E2,7.060808E1,4.8187172E1,1.802192E1,1.0166744E2,1.3689856E1,6.296793E0,1.7964525E1,5.201399E2,1.5507288E1,1.609813E0,1.0203377E0,5.893257E1,1.1047797E0,5.463635E0,4.2583876E0,2.2878483E1,1.513778E0,8.022518E0,3.042295E1,2.2788573E2,7.1001472E0,3.0930267E1,3.9677807E1,4.2681E1,5.50617E0,1.4107418E1,3.9145002E0,2.2166464E1,7.9500984E1,3.6601777E0,1.0029678E1,1.4817876E1,3.1466498E0,1.3713754E0,1.4135912E1,5.6443905E1,2.4886642E0,2.0895538E0,2.168834E0,2.012058E1,2.757902E0,2.1876022E1,8.546928E0,8.10305E0,2.1978268E2,6.025487E0,1.0746601E0,2.9913307E1,1.0169601E0,2.051642E1,1.9161388E1,4.153677E1,1.1442322E0,3.149085E0,2.357085E0,1.2522795E1,1.5846236E0,1.0131376E1,1.2035088E1,3.9759746E0,7.552501E1,1.1277274E0,2.5324502E0,1.6464118E0,8.383266E0,1.3255047E1,1.5628293E0],"tree_param":{"num_deleted":"0","num_feature":"38","num_nodes":"87","size_leaf_vector":"1"}},{"base_weights":[-1.3981527E-2,-2.9929298E-1,1.4847945E0,5.5937237E-1,-4.2555213E-1,9.0957904E-1,1.5395735E-1,-1.8070109E-1,1.165365E0,-9.1851175E-2,-4.5910853E-1,1.33953E0,-7.175236E-2,1.3295588E-1,-3.39702E-1,1.4165527E0,2.8969607E-1,7.8521836E-1,-3.3086795E-1,-9.921075E-2,-4.7971937E-1,1.4713391E0,7.168447E-3,7.121301E-2,-4.783792E-2,-4.0682283E-1,1.196514E-1,1.5421562E0,3.3465123E-1,1.3650529E-1,-1.7846264E-1,-1.3881028E-1,1.3858781E0,9.604429E-2,-3.7256482E-1,-3.7649253E-1,5.598314E-1,-3.9062232E-1,-5.1942754E-1,1.550737E-1,4.8595708E-2,6.0340296E-2,-4.948528E-2,1.5735264E-1,1.1620362E-2,-4.2454656E-2,8.404755E-2,-4.6820614E-2,1.17266856E-1,-4.8663937E-2,4.7940765E-2,1.6113204E-1,-3.1263314E-2,3.300707E-2,-4.391496E-2,7.852975E-2,-4.6501677E-2,1.0216613E-1,-1.7277712E-2,-2.7866026E-2,-5.648896E-2,-5.2318335E-2,6.575015E-2],"categories":[],"categories_nodes":[],"categories_segments":[],"categories_sizes":[],"default_left":[0,0,0,0,0,0,0,0,0,0,0,0,0,0,0,0,0,0,0,0,0,0,0,0,0,0,0,0,0,0,0,0,0,0,0,0,0,0,0,0,0,0,0,0,0,0,0,0,0,0,0,0,0,0,0,0,0,0,0,0,0,0,0],"id":18,"left_children":[1,3,5,7,9,11,-1,13,15,17,19,21,23,-1,25,27,29,31,33,35,37,39,-1,-1,-1,41,-1,43,45,-1,47,49,51,-1,53,55,57,59,61,-1,-1,-1,-1,-1,-1,-1,-1,-1,-1,-1,-1,-1,-1,-1,-1,-1,-1,-1,-1,-1,-1,-1,-1],"loss_changes":[5.0581488E2,1.0796521E2,4.5602417E0,5.7531246E1,9.664658E0,8.067125E0,0E0,1.4476787E1,1.5075813E1,1.712581E1,5.7931213E0,2.098318E0,2.4777656E0,0E0,6.0175962E0,6.883751E0,8.777468E0,9.919919E0,3.7999501E0,8.235127E0,2.4309998E0,1.7698479E-1,0E0,0E0,0E0,4.9353914E0,0E0,1.9872284E0,3.022472E0,0E0,5.5185723E0,1.9134747E0,4.605831E0,0E0,3.0759716E0,3.605391E0,4.712284E0,4.3993187E0,2.6069336E0,0E0,0E0,0E0,0E0,0E0,0E0,0E0,0E0,0E0,0E0,0E0,0E0,0E0,0E0,0E0,0E0,0E0,0E0,0E0,0E0,0E0,0E0,0E0,0E0],"parents":[2147483647,0,0,1,1,2,2,3,3,4,4,5,5,7,7,8,8,9,9,10,10,11,11,12,12,14,14,15,15,16,16,17,17,18,18,19,19,20,20,21,21,25,25,27,27,28,28,30,30,31,31,32,32,34,34,35,35,36,36,37,37,38,38],"right_children":[2,4,6,8,10,12,-1,14,16,18,20,22,24,-1,26,28,30,32,34,36,38,40,-1,-1,-1,42,-1,44,46,-1,48,50,52,-1,54,56,58,60,62,-1,-1,-1,-1,-1,-1,-1,-1,-1,-1,-1,-1,-1,-1,-1,-1,-1,-1,-1,-1,-1,-1,-1,-1],"split_conditions":[3.346131E-2,1.5746176E-1,4.0576283E-2,9.968534E-1,2.319738E-3,2.1545459E-3,1.5395735E-1,1.2120256E-1,8.689182E-3,6.237038E-1,1.8927829E-1,2.3769647E-2,3.8700186E-2,1.3295588E-1,2.613098E-1,2.0309925E-1,2.3085165E-1,4.2370242E-1,1.6804143E-3,9.8813456E-1,6.697305E-4,4.8908633E-1,7.168447E-3,7.121301E-2,-4.783792E-2,1.3697903E-1,1.196514E-1,6.4656353E-1,6.116896E-1,1.3650529E-1,2.9978852E-3,9.8274696E-1,6.746127E-2,9.604429E-2,8.629598E-4,9.279966E-2,3.4870002E-1,1.461766E-1,9.998867E-1,1.550737E-1,4.8595708E-2,6.0340296E-2,-4.948528E-2,1.5735264E-1,1.1620362E-2,-4.2454656E-2,8.404755E-2,-4.6820614E-2,1.17266856E-1,-4.8663937E-2,4.7940765E-2,1.6113204E-1,-3.1263314E-2,3.300707E-2,-4.391496E-2,7.852975E-2,-4.6501677E-2,1.0216613E-1,-1.7277712E-2,-2.7866026E-2,-5.648896E-2,-5.2318335E-2,6.575015E-2],"split_indices":[27,35,27,4,11,16,0,37,11,28,35,2,34,0,31,37,20,22,4,4,6,20,0,0,0,20,0,20,22,0,7,29,3,0,0,20,20,2,8,0,0,0,0,0,0,0,0,0,0,0,0,0,0,0,0,0,0,0,0,0,0,0,0],"split_type":[0,0,0,0,0,0,0,0,0,0,0,0,0,0,0,0,0,0,0,0,0,0,0,0,0,0,0,0,0,0,0,0,0,0,0,0,0,0,0,0,0,0,0,0,0,0,0,0,0,0,0,0,0,0,0,0,0,0,0,0,0,0,0],"sum_hessian":[1.180827E3,9.926614E2,1.8816565E2,1.2681121E2,8.6585016E2,1.789204E1,1.702736E2,5.740576E1,6.940545E1,7.9454414E1,7.863957E2,1.2187371E1,5.704669E0,4.7667875E0,5.2638977E1,5.3454285E1,1.5951166E1,1.6526264E1,6.2928154E1,4.2911232E1,7.434845E2,1.0894266E1,1.2931055E0,1.6918542E0,4.0128145E0,5.113974E1,1.499235E0,4.7512856E1,5.9414268E0,4.2570243E0,1.1694142E1,6.81353E0,9.712733E0,1.2791835E0,6.164897E1,3.0505318E1,1.2405913E1,2.3254288E2,5.1094162E2,9.550949E0,1.3433168E0,3.6298072E0,4.7509933E1,4.638884E1,1.1240184E0,2.4399538E0,